<?xml version="1.0"?>
<opencv_storage>
<cascade>
  <stageType>BOOST</stageType>
  <featureType>HAAR</featureType>
  <height>20</height>
  <width>20</width>
  <stageParams>
    <boostType>GAB</boostType>
    <minHitRate>9.9500000476837158e-01</minHitRate>
    <maxFalseAlarm>5.0000000000000000e-01</maxFalseAlarm>
    <weightTrimRate>9.4999999999999996e-01</weightTrimRate>
    <maxDepth>1</maxDepth>
    <maxWeakCount>100</maxWeakCount></stageParams>
  <featureParams>
    <maxCatCount>0</maxCatCount>
    <featSize>1</featSize>
    <mode>BASIC</mode></featureParams>
  <stageNum>20</stageNum>
  <stages>
    <!-- stage 0 -->
    <_>
      <maxWeakCount>11</maxWeakCount>
      <stageThreshold>-1.2719205617904663e+00</stageThreshold>
      <weakClassifiers>
        <_>
          <internalNodes>
            0 -1 248 -2.0502146333456039e-02</internalNodes>
          <leafValues>
            7.8591161966323853e-01 -1.9009584188461304e-01</leafValues></_>
        <_>
          <internalNodes>
            0 -1 215 -2.3339487612247467e-02</internalNodes>
          <leafValues>
            7.4140793085098267e-01 -2.5690826773643494e-01</leafValues></_>
        <_>
          <internalNodes>
            0 -1 137 2.1229233592748642e-02</internalNodes>
          <leafValues>
            -2.0387074351310730e-01 7.2324395179748535e-01</leafValues></_>
        <_>
          <internalNodes>
            0 -1 221 -2.8010841924697161e-03</internalNodes>
          <leafValues>
            5.2760070562362671e-01 -2.9868516325950623e-01</leafValues></_>
        <_>
          <internalNodes>
            0 -1 57 -8.3935320377349854e-02</internalNodes>
          <leafValues>
            -7.2198843955993652e-01 2.3922294378280640e-01</leafValues></_>
        <_>
          <internalNodes>
            0 -1 64 1.1900669336318970e-01</internalNodes>
          <leafValues>
            1.2210267782211304e-01 -7.8628826141357422e-01</leafValues></_>
        <_>
          <internalNodes>
            0 -1 105 -2.3075941205024719e-01</internalNodes>
          <leafValues>
            -8.7846809625625610e-01 1.1698690056800842e-01</leafValues></_>
        <_>
          <internalNodes>
            0 -1 104 1.5197364985942841e-01</internalNodes>
          <leafValues>
            1.4321272075176239e-01 -8.5920828580856323e-01</leafValues></_>
        <_>
          <internalNodes>
            0 -1 322 -2.9022066155448556e-04</internalNodes>
          <leafValues>
            -5.8480447530746460e-01 1.8871529400348663e-01</leafValues></_>
        <_>
          <internalNodes>
            0 -1 87 -1.8696554005146027e-02</internalNodes>
          <leafValues>
            6.6726350784301758e-01 -1.7345456779003143e-01</leafValues></_>
        <_>
          <internalNodes>
            0 -1 359 8.2289865240454674e-03</internalNodes>
          <leafValues>
            -1.6617915034294128e-01 6.9268053770065308e-01</leafValues></_></weakClassifiers></_>
    <!-- stage 1 -->
    <_>
      <maxWeakCount>14</maxWeakCount>
      <stageThreshold>-9.0814226865768433e-01</stageThreshold>
      <weakClassifiers>
        <_>
          <internalNodes>
            0 -1 170 2.3570511490106583e-02</internalNodes>
          <leafValues>
            -3.3205620944499969e-02 8.3950614929199219e-01</leafValues></_>
        <_>
          <internalNodes>
            0 -1 342 -5.0935102626681328e-04</internalNodes>
          <leafValues>
            -8.2389485836029053e-01 2.7947482466697693e-01</leafValues></_>
        <_>
          <internalNodes>
            0 -1 471 -1.8297512084245682e-02</internalNodes>
          <leafValues>
            6.2254559993743896e-01 -2.8141504526138306e-01</leafValues></_>
        <_>
          <internalNodes>
            0 -1 360 7.8095393255352974e-03</internalNodes>
          <leafValues>
            -2.0295891165733337e-01 5.5987852811813354e-01</leafValues></_>
        <_>
          <internalNodes>
            0 -1 298 2.6225252076983452e-03</internalNodes>
          <leafValues>
            1.3200072944164276e-01 -8.5067677497863770e-01</leafValues></_>
        <_>
          <internalNodes>
            0 -1 167 -1.3550216332077980e-02</internalNodes>
          <leafValues>
            5.6776368618011475e-01 -2.0997649431228638e-01</leafValues></_>
        <_>
          <internalNodes>
            0 -1 470 2.2145044058561325e-02</internalNodes>
          <leafValues>
            -1.9427627325057983e-01 5.6368964910507202e-01</leafValues></_>
        <_>
          <internalNodes>
            0 -1 10 1.0923862457275391e-01</internalNodes>
          <leafValues>
            -1.5035007894039154e-01 5.6363719701766968e-01</leafValues></_>
        <_>
          <internalNodes>
            0 -1 75 -1.9744336605072021e-02</internalNodes>
          <leafValues>
            5.3731602430343628e-01 -1.8040016293525696e-01</leafValues></_>
        <_>
          <internalNodes>
            0 -1 298 -3.9866226725280285e-03</internalNodes>
          <leafValues>
            -9.3774390220642090e-01 1.2675097584724426e-01</leafValues></_>
        <_>
          <internalNodes>
            0 -1 192 4.8266411758959293e-03</internalNodes>
          <leafValues>
            -2.8376635909080505e-01 3.2594728469848633e-01</leafValues></_>
        <_>
          <internalNodes>
            0 -1 342 2.7694099117070436e-04</internalNodes>
          <leafValues>
            2.2290739417076111e-01 -4.2093935608863831e-01</leafValues></_>
        <_>
          <internalNodes>
            0 -1 35 1.6128178685903549e-02</internalNodes>
          <leafValues>
            -2.1917568147182465e-01 4.2745843529701233e-01</leafValues></_>
        <_>
          <internalNodes>
            0 -1 110 -1.5683829784393311e-01</internalNodes>
          <leafValues>
            -7.1967607736587524e-01 1.2038154900074005e-01</leafValues></_></weakClassifiers></_>
    <!-- stage 2 -->
    <_>
      <maxWeakCount>18</maxWeakCount>
      <stageThreshold>-9.8452615737915039e-01</stageThreshold>
      <weakClassifiers>
        <_>
          <internalNodes>
            0 -1 241 -1.5497614629566669e-02</internalNodes>
          <leafValues>
            7.0505052804946899e-01 -1.2098765373229980e-01</leafValues></_>
        <_>
          <internalNodes>
            0 -1 131 -3.5635549575090408e-02</internalNodes>
          <leafValues>
            6.3656842708587646e-01 -2.0173512399196625e-01</leafValues></_>
        <_>
          <internalNodes>
            0 -1 383 -3.5096512874588370e-04</internalNodes>
          <leafValues>
            -5.7373714447021484e-01 2.3683983087539673e-01</leafValues></_>
        <_>
          <internalNodes>
            0 -1 383 5.3128949366509914e-04</internalNodes>
          <leafValues>
            1.9400577247142792e-01 -6.2727451324462891e-01</leafValues></_>
        <_>
          <internalNodes>
            0 -1 254 -1.6748808324337006e-02</internalNodes>
          <leafValues>
            5.8218735456466675e-01 -2.1767194569110870e-01</leafValues></_>
        <_>
          <internalNodes>
            0 -1 458 -5.2160665392875671e-02</internalNodes>
          <leafValues>
            4.9767562747001648e-01 -2.2943539917469025e-01</leafValues></_>
        <_>
          <internalNodes>
            0 -1 389 2.4894389789551497e-03</internalNodes>
          <leafValues>
            -1.7032821476459503e-01 7.1122890710830688e-01</leafValues></_>
        <_>
          <internalNodes>
            0 -1 285 2.5537742301821709e-02</internalNodes>
          <leafValues>
            -1.2372223287820816e-01 6.0643768310546875e-01</leafValues></_>
        <_>
          <internalNodes>
            0 -1 281 -7.1039441972970963e-03</internalNodes>
          <leafValues>
            7.0210742950439453e-01 -1.6621868312358856e-01</leafValues></_>
        <_>
          <internalNodes>
            0 -1 14 8.5727386176586151e-03</internalNodes>
          <leafValues>
            -1.4434647560119629e-01 5.3915548324584961e-01</leafValues></_>
        <_>
          <internalNodes>
            0 -1 303 6.5643549896776676e-03</internalNodes>
          <leafValues>
            -2.5309962034225464e-01 3.3557707071304321e-01</leafValues></_>
        <_>
          <internalNodes>
            0 -1 227 -4.8369396245107055e-04</internalNodes>
          <leafValues>
            -6.3694232702255249e-01 1.5838585793972015e-01</leafValues></_>
        <_>
          <internalNodes>
            0 -1 255 -8.3349477499723434e-03</internalNodes>
          <leafValues>
            5.1023221015930176e-01 -1.8560120463371277e-01</leafValues></_>
        <_>
          <internalNodes>
            0 -1 214 2.5131879374384880e-03</internalNodes>
          <leafValues>
            1.7389851808547974e-01 -5.1986420154571533e-01</leafValues></_>
        <_>
          <internalNodes>
            0 -1 324 -2.6739347958937287e-04</internalNodes>
          <leafValues>
            -5.7261222600936890e-01 1.4795659482479095e-01</leafValues></_>
        <_>
          <internalNodes>
            0 -1 311 -7.3968376964330673e-03</internalNodes>
          <leafValues>
            6.1552417278289795e-01 -1.3932114839553833e-01</leafValues></_>
        <_>
          <internalNodes>
            0 -1 103 1.2305554747581482e-01</internalNodes>
          <leafValues>
            9.4984859228134155e-02 -9.6506553888320923e-01</leafValues></_>
        <_>
          <internalNodes>
            0 -1 224 4.6854792162775993e-03</internalNodes>
          <leafValues>
            9.3762204051017761e-02 -7.0731467008590698e-01</leafValues></_></weakClassifiers></_>
    <!-- stage 3 -->
    <_>
      <maxWeakCount>17</maxWeakCount>
      <stageThreshold>-1.0445889234542847e+00</stageThreshold>
      <weakClassifiers>
        <_>
          <internalNodes>
            0 -1 21 3.9006337523460388e-02</internalNodes>
          <leafValues>
            -2.6595743838697672e-03 7.5585281848907471e-01</leafValues></_>
        <_>
          <internalNodes>
            0 -1 101 4.5808378607034683e-02</internalNodes>
          <leafValues>
            -2.2768494486808777e-01 5.2178627252578735e-01</leafValues></_>
        <_>
          <internalNodes>
            0 -1 182 -6.6237582359462976e-04</internalNodes>
          <leafValues>
            -7.5747662782669067e-01 1.8705803155899048e-01</leafValues></_>
        <_>
          <internalNodes>
            0 -1 249 -1.4399837702512741e-02</internalNodes>
          <leafValues>
            3.4509393572807312e-01 -3.4524586796760559e-01</leafValues></_>
        <_>
          <internalNodes>
            0 -1 236 -7.0000073174014688e-04</internalNodes>
          <leafValues>
            -7.1598178148269653e-01 1.5075799822807312e-01</leafValues></_>
        <_>
          <internalNodes>
            0 -1 19 -1.8546979874372482e-02</internalNodes>
          <leafValues>
            5.8427834510803223e-01 -2.5696358084678650e-01</leafValues></_>
        <_>
          <internalNodes>
            0 -1 277 -2.0742226392030716e-02</internalNodes>
          <leafValues>
            4.8658648133277893e-01 -2.0678566396236420e-01</leafValues></_>
        <_>
          <internalNodes>
            0 -1 323 -1.1361353099346161e-03</internalNodes>
          <leafValues>
            -4.7828954458236694e-01 1.7859244346618652e-01</leafValues></_>
        <_>
          <internalNodes>
            0 -1 381 1.9425067875999957e-04</internalNodes>
          <leafValues>
            1.7115598917007446e-01 -5.4728573560714722e-01</leafValues></_>
        <_>
          <internalNodes>
            0 -1 246 9.0642378199845552e-04</internalNodes>
          <leafValues>
            -3.3262252807617188e-01 3.0579614639282227e-01</leafValues></_>
        <_>
          <internalNodes>
            0 -1 406 3.1714309006929398e-03</internalNodes>
          <leafValues>
            -1.8031419813632965e-01 4.8087623715400696e-01</leafValues></_>
        <_>
          <internalNodes>
            0 -1 195 6.5676652593538165e-04</internalNodes>
          <leafValues>
            -2.7091485261917114e-01 3.2516291737556458e-01</leafValues></_>
        <_>
          <internalNodes>
            0 -1 292 -7.1694422513246536e-04</internalNodes>
          <leafValues>
            -6.7526167631149292e-01 1.4045728743076324e-01</leafValues></_>
        <_>
          <internalNodes>
            0 -1 474 3.7807947956025600e-03</internalNodes>
          <leafValues>
            -1.9594015181064606e-01 4.3044421076774597e-01</leafValues></_>
        <_>
          <internalNodes>
            0 -1 491 9.1824335977435112e-03</internalNodes>
          <leafValues>
            -1.3232162594795227e-01 6.5805566310882568e-01</leafValues></_>
        <_>
          <internalNodes>
            0 -1 97 1.4619545079767704e-02</internalNodes>
          <leafValues>
            1.3900539278984070e-01 -6.9282555580139160e-01</leafValues></_>
        <_>
          <internalNodes>
            0 -1 436 2.3440588265657425e-03</internalNodes>
          <leafValues>
            -1.7154835164546967e-01 5.3559124469757080e-01</leafValues></_></weakClassifiers></_>
    <!-- stage 4 -->
    <_>
      <maxWeakCount>17</maxWeakCount>
      <stageThreshold>-1.0510232448577881e+00</stageThreshold>
      <weakClassifiers>
        <_>
          <internalNodes>
            0 -1 68 1.8739592283964157e-02</internalNodes>
          <leafValues>
            -5.1829267293214798e-02 6.9740635156631470e-01</leafValues></_>
        <_>
          <internalNodes>
            0 -1 98 -1.4828329905867577e-02</internalNodes>
          <leafValues>
            5.3714215755462646e-01 -1.6638490557670593e-01</leafValues></_>
        <_>
          <internalNodes>
            0 -1 237 4.1017374023795128e-03</internalNodes>
          <leafValues>
            -3.2530057430267334e-01 3.2652452588081360e-01</leafValues></_>
        <_>
          <internalNodes>
            0 -1 321 -2.2015119611751288e-04</internalNodes>
          <leafValues>
            -6.3007193803787231e-01 1.2352334707975388e-01</leafValues></_>
        <_>
          <internalNodes>
            0 -1 220 -2.1556608844548464e-03</internalNodes>
          <leafValues>
            3.2490980625152588e-01 -2.6672250032424927e-01</leafValues></_>
        <_>
          <internalNodes>
            0 -1 282 1.7220597947016358e-03</internalNodes>
          <leafValues>
            -1.7202736437320709e-01 5.1245301961898804e-01</leafValues></_>
        <_>
          <internalNodes>
            0 -1 422 -5.1167700439691544e-04</internalNodes>
          <leafValues>
            -6.0059010982513428e-01 1.4035962522029877e-01</leafValues></_>
        <_>
          <internalNodes>
            0 -1 59 -9.8421245813369751e-02</internalNodes>
          <leafValues>
            -8.2712584733963013e-01 1.0413546860218048e-01</leafValues></_>
        <_>
          <internalNodes>
            0 -1 233 5.4199106991291046e-02</internalNodes>
          <leafValues>
            -1.6961459815502167e-01 5.2362388372421265e-01</leafValues></_>
        <_>
          <internalNodes>
            0 -1 181 -4.3315809220075607e-02</internalNodes>
          <leafValues>
            3.7930884957313538e-01 -2.6337271928787231e-01</leafValues></_>
        <_>
          <internalNodes>
            0 -1 58 9.3531750142574310e-02</internalNodes>
          <leafValues>
            1.0630991309881210e-01 -7.8055119514465332e-01</leafValues></_>
        <_>
          <internalNodes>
            0 -1 455 -3.5769686102867126e-02</internalNodes>
          <leafValues>
            3.8673272728919983e-01 -2.1794021129608154e-01</leafValues></_>
        <_>
          <internalNodes>
            0 -1 24 -1.2212920002639294e-02</internalNodes>
          <leafValues>
            6.4137911796569824e-01 -1.4602798223495483e-01</leafValues></_>
        <_>
          <internalNodes>
            0 -1 346 -9.4413990154862404e-04</internalNodes>
          <leafValues>
            -7.6990127563476562e-01 1.3760903477668762e-01</leafValues></_>
        <_>
          <internalNodes>
            0 -1 19 2.4875670671463013e-02</internalNodes>
          <leafValues>
            -1.7396271228790283e-01 4.7752666473388672e-01</leafValues></_>
        <_>
          <internalNodes>
            0 -1 80 1.3464558869600296e-03</internalNodes>
          <leafValues>
            -2.2594539821147919e-01 3.5118985176086426e-01</leafValues></_>
        <_>
          <internalNodes>
            0 -1 331 3.0315653420984745e-03</internalNodes>
          <leafValues>
            -1.3129779696464539e-01 5.4321694374084473e-01</leafValues></_></weakClassifiers></_>
    <!-- stage 5 -->
    <_>
      <maxWeakCount>20</maxWeakCount>
      <stageThreshold>-8.6053991317749023e-01</stageThreshold>
      <weakClassifiers>
        <_>
          <internalNodes>
            0 -1 172 2.4750418961048126e-02</internalNodes>
          <leafValues>
            -7.0571631658822298e-04 7.0226031541824341e-01</leafValues></_>
        <_>
          <internalNodes>
            0 -1 381 -2.8340384596958756e-04</internalNodes>
          <leafValues>
            -5.6269109249114990e-01 2.4173676967620850e-01</leafValues></_>
        <_>
          <internalNodes>
            0 -1 90 -8.4692779928445816e-03</internalNodes>
          <leafValues>
            3.3052656054496765e-01 -3.3967313170433044e-01</leafValues></_>
        <_>
          <internalNodes>
            0 -1 275 8.1252359086647630e-04</internalNodes>
          <leafValues>
            1.8469491600990295e-01 -4.9703073501586914e-01</leafValues></_>
        <_>
          <internalNodes>
            0 -1 99 -3.8078427314758301e-03</internalNodes>
          <leafValues>
            4.1237133741378784e-01 -1.8748143315315247e-01</leafValues></_>
        <_>
          <internalNodes>
            0 -1 413 6.7531340755522251e-04</internalNodes>
          <leafValues>
            1.3929046690464020e-01 -5.0853466987609863e-01</leafValues></_>
        <_>
          <internalNodes>
            0 -1 384 -1.1179963126778603e-02</internalNodes>
          <leafValues>
            4.6510049700737000e-01 -1.9814056158065796e-01</leafValues></_>
        <_>
          <internalNodes>
            0 -1 137 -2.1463803946971893e-02</internalNodes>
          <leafValues>
            5.4076784849166870e-01 -2.0828406512737274e-01</leafValues></_>
        <_>
          <internalNodes>
            0 -1 174 -2.8648457373492420e-04</internalNodes>
          <leafValues>
            -5.6343305110931396e-01 1.6049639880657196e-01</leafValues></_>
        <_>
          <internalNodes>
            0 -1 152 1.1639034375548363e-02</internalNodes>
          <leafValues>
            -2.4079817533493042e-01 3.2739305496215820e-01</leafValues></_>
        <_>
          <internalNodes>
            0 -1 466 -2.9268018901348114e-02</internalNodes>
          <leafValues>
            4.7310638427734375e-01 -1.3551869988441467e-01</leafValues></_>
        <_>
          <internalNodes>
            0 -1 297 1.0695457458496094e-03</internalNodes>
          <leafValues>
            7.2233185172080994e-02 -6.9547206163406372e-01</leafValues></_>
        <_>
          <internalNodes>
            0 -1 155 -3.9721205830574036e-03</internalNodes>
          <leafValues>
            4.6542266011238098e-01 -1.5054242312908173e-01</leafValues></_>
        <_>
          <internalNodes>
            0 -1 116 -1.3875331496819854e-03</internalNodes>
          <leafValues>
            2.8403434157371521e-01 -2.1522566676139832e-01</leafValues></_>
        <_>
          <internalNodes>
            0 -1 278 2.4960801238194108e-04</internalNodes>
          <leafValues>
            1.6757777333259583e-01 -4.1549834609031677e-01</leafValues></_>
        <_>
          <internalNodes>
            0 -1 128 -2.1756319329142570e-02</internalNodes>
          <leafValues>
            -8.4851503372192383e-01 7.8893370926380157e-02</leafValues></_>
        <_>
          <internalNodes>
            0 -1 3 2.5428447872400284e-02</internalNodes>
          <leafValues>
            -2.0093081891536713e-01 3.6543941497802734e-01</leafValues></_>
        <_>
          <internalNodes>
            0 -1 187 7.3439627885818481e-04</internalNodes>
          <leafValues>
            -2.1468815207481384e-01 2.9765781760215759e-01</leafValues></_>
        <_>
          <internalNodes>
            0 -1 401 -9.1705215163528919e-04</internalNodes>
          <leafValues>
            -5.1884388923645020e-01 1.2763324379920959e-01</leafValues></_>
        <_>
          <internalNodes>
            0 -1 447 -2.8171939775347710e-03</internalNodes>
          <leafValues>
            3.6236643791198730e-01 -1.6046611964702606e-01</leafValues></_></weakClassifiers></_>
    <!-- stage 6 -->
    <_>
      <maxWeakCount>23</maxWeakCount>
      <stageThreshold>-8.5322010517120361e-01</stageThreshold>
      <weakClassifiers>
        <_>
          <internalNodes>
            0 -1 6 4.1861325502395630e-02</internalNodes>
          <leafValues>
            7.9102717339992523e-02 7.6143139600753784e-01</leafValues></_>
        <_>
          <internalNodes>
            0 -1 248 -1.6031108796596527e-02</internalNodes>
          <leafValues>
            3.5337778925895691e-01 -3.2833692431449890e-01</leafValues></_>
        <_>
          <internalNodes>
            0 -1 270 -2.7352134929969907e-04</internalNodes>
          <leafValues>
            -5.8725690841674805e-01 1.6589358448982239e-01</leafValues></_>
        <_>
          <internalNodes>
            0 -1 425 -6.7455358803272247e-03</internalNodes>
          <leafValues>
            4.9912413954734802e-01 -1.8449835479259491e-01</leafValues></_>
        <_>
          <internalNodes>
            0 -1 213 8.8876241352409124e-04</internalNodes>
          <leafValues>
            1.4095784723758698e-01 -5.5009979009628296e-01</leafValues></_>
        <_>
          <internalNodes>
            0 -1 244 5.8434642851352692e-02</internalNodes>
          <leafValues>
            -1.1088297516107559e-01 6.8528503179550171e-01</leafValues></_>
        <_>
          <internalNodes>
            0 -1 132 -5.1971152424812317e-03</internalNodes>
          <leafValues>
            4.1938132047653198e-01 -1.6732740402221680e-01</leafValues></_>
        <_>
          <internalNodes>
            0 -1 350 2.5188678409904242e-04</internalNodes>
          <leafValues>
            1.5752011537551880e-01 -4.6867871284484863e-01</leafValues></_>
        <_>
          <internalNodes>
            0 -1 332 -1.1471281759440899e-03</internalNodes>
          <leafValues>
            3.2713761925697327e-01 -2.1044258773326874e-01</leafValues></_>
        <_>
          <internalNodes>
            0 -1 235 3.2562942942604423e-04</internalNodes>
          <leafValues>
            1.4109534025192261e-01 -4.9209967255592346e-01</leafValues></_>
        <_>
          <internalNodes>
            0 -1 111 -2.3997776210308075e-01</internalNodes>
          <leafValues>
            -9.1388756036758423e-01 7.0133507251739502e-02</leafValues></_>
        <_>
          <internalNodes>
            0 -1 102 -2.8038427699357271e-03</internalNodes>
          <leafValues>
            3.8560950756072998e-01 -1.8149064481258392e-01</leafValues></_>
        <_>
          <internalNodes>
            0 -1 56 -4.8404060304164886e-02</internalNodes>
          <leafValues>
            4.3652617931365967e-01 -1.3235369324684143e-01</leafValues></_>
        <_>
          <internalNodes>
            0 -1 8 -2.4679766967892647e-02</internalNodes>
          <leafValues>
            4.6357086300849915e-01 -1.6277818381786346e-01</leafValues></_>
        <_>
          <internalNodes>
            0 -1 293 4.3908562511205673e-03</internalNodes>
          <leafValues>
            9.9796235561370850e-02 -8.4263664484024048e-01</leafValues></_>
        <_>
          <internalNodes>
            0 -1 178 2.5618474464863539e-03</internalNodes>
          <leafValues>
            -3.2549944519996643e-01 1.9099687039852142e-01</leafValues></_>
        <_>
          <internalNodes>
            0 -1 106 6.0801647603511810e-02</internalNodes>
          <leafValues>
            8.1981219351291656e-02 -7.3593658208847046e-01</leafValues></_>
        <_>
          <internalNodes>
            0 -1 426 3.5807210952043533e-03</internalNodes>
          <leafValues>
            -2.4563632905483246e-01 2.4597163498401642e-01</leafValues></_>
        <_>
          <internalNodes>
            0 -1 36 -3.5631579812616110e-03</internalNodes>
          <leafValues>
            4.1786092519760132e-01 -1.4873965084552765e-01</leafValues></_>
        <_>
          <internalNodes>
            0 -1 23 -2.7446597814559937e-03</internalNodes>
          <leafValues>
            3.8674494624137878e-01 -1.4327780902385712e-01</leafValues></_>
        <_>
          <internalNodes>
            0 -1 122 1.6774237155914307e-03</internalNodes>
          <leafValues>
            -1.7554107308387756e-01 3.5723483562469482e-01</leafValues></_>
        <_>
          <internalNodes>
            0 -1 345 1.6924581723287702e-04</internalNodes>
          <leafValues>
            1.6031304001808167e-01 -4.2228293418884277e-01</leafValues></_>
        <_>
          <internalNodes>
            0 -1 259 -1.4768906868994236e-02</internalNodes>
          <leafValues>
            4.5260027050971985e-01 -1.4541907608509064e-01</leafValues></_></weakClassifiers></_>
    <!-- stage 7 -->
    <_>
      <maxWeakCount>26</maxWeakCount>
      <stageThreshold>-8.4947299957275391e-01</stageThreshold>
      <weakClassifiers>
        <_>
          <internalNodes>
            0 -1 295 -7.1784935425966978e-04</internalNodes>
          <leafValues>
            -6.3957595825195312e-01 4.4724866747856140e-01</leafValues></_>
        <_>
          <internalNodes>
            0 -1 472 -3.5956524312496185e-02</internalNodes>
          <leafValues>
            5.8517467975616455e-01 -2.0547027885913849e-01</leafValues></_>
        <_>
          <internalNodes>
            0 -1 156 5.6021377444267273e-02</internalNodes>
          <leafValues>
            -2.1714729070663452e-01 4.1433718800544739e-01</leafValues></_>
        <_>
          <internalNodes>
            0 -1 320 -8.5919862613081932e-04</internalNodes>
          <leafValues>
            -4.8007407784461975e-01 1.5751516819000244e-01</leafValues></_>
        <_>
          <internalNodes>
            0 -1 363 1.8515482544898987e-02</internalNodes>
          <leafValues>
            -2.3050406575202942e-01 3.8086953759193420e-01</leafValues></_>
        <_>
          <internalNodes>
            0 -1 342 1.7990433843806386e-04</internalNodes>
          <leafValues>
            2.5763753056526184e-01 -3.0257233977317810e-01</leafValues></_>
        <_>
          <internalNodes>
            0 -1 250 -8.6351530626416206e-03</internalNodes>
          <leafValues>
            2.0529393851757050e-01 -3.4436416625976562e-01</leafValues></_>
        <_>
          <internalNodes>
            0 -1 325 -3.3952749799937010e-04</internalNodes>
          <leafValues>
            -4.9000313878059387e-01 1.5182107686996460e-01</leafValues></_>
        <_>
          <internalNodes>
            0 -1 490 3.8958606310188770e-03</internalNodes>
          <leafValues>
            -1.5357317030429840e-01 4.5728048682212830e-01</leafValues></_>
        <_>
          <internalNodes>
            0 -1 228 -1.3059270568192005e-03</internalNodes>
          <leafValues>
            -7.4311745166778564e-01 1.0293669998645782e-01</leafValues></_>
        <_>
          <internalNodes>
            0 -1 365 2.0049661397933960e-03</internalNodes>
          <leafValues>
            -1.5000942349433899e-01 4.6425339579582214e-01</leafValues></_>
        <_>
          <internalNodes>
            0 -1 399 4.2269185185432434e-02</internalNodes>
          <leafValues>
            1.1985994130373001e-01 -6.3014513254165649e-01</leafValues></_>
        <_>
          <internalNodes>
            0 -1 317 9.9792722612619400e-03</internalNodes>
          <leafValues>
            -2.6210820674896240e-01 2.1823547780513763e-01</leafValues></_>
        <_>
          <internalNodes>
            0 -1 61 1.1601042747497559e-01</internalNodes>
          <leafValues>
            9.5190502703189850e-02 -6.4350110292434692e-01</leafValues></_>
        <_>
          <internalNodes>
            0 -1 49 -4.2280387133359909e-02</internalNodes>
          <leafValues>
            -6.1724203824996948e-01 7.6184891164302826e-02</leafValues></_>
        <_>
          <internalNodes>
            0 -1 133 -2.0618275739252567e-03</internalNodes>
          <leafValues>
            2.3147535324096680e-01 -2.2985894978046417e-01</leafValues></_>
        <_>
          <internalNodes>
            0 -1 83 1.4721910469233990e-02</internalNodes>
          <leafValues>
            8.2233518362045288e-02 -6.3418430089950562e-01</leafValues></_>
        <_>
          <internalNodes>
            0 -1 340 -7.6324101537466049e-03</internalNodes>
          <leafValues>
            3.2857191562652588e-01 -1.7981506884098053e-01</leafValues></_>
        <_>
          <internalNodes>
            0 -1 55 6.5903170034289360e-03</internalNodes>
          <leafValues>
            -1.4241527020931244e-01 4.2091387510299683e-01</leafValues></_>
        <_>
          <internalNodes>
            0 -1 395 3.9186673238873482e-03</internalNodes>
          <leafValues>
            7.3326900601387024e-02 -7.5292468070983887e-01</leafValues></_>
        <_>
          <internalNodes>
            0 -1 302 2.3873224854469299e-03</internalNodes>
          <leafValues>
            -2.6335978507995605e-01 2.5767731666564941e-01</leafValues></_>
        <_>
          <internalNodes>
            0 -1 324 1.8320680828765035e-04</internalNodes>
          <leafValues>
            1.5223729610443115e-01 -3.7417009472846985e-01</leafValues></_>
        <_>
          <internalNodes>
            0 -1 331 1.4891736209392548e-03</internalNodes>
          <leafValues>
            -1.4593248069286346e-01 3.8124912977218628e-01</leafValues></_>
        <_>
          <internalNodes>
            0 -1 442 -1.5105611237231642e-04</internalNodes>
          <leafValues>
            -3.7380269169807434e-01 1.5075369179248810e-01</leafValues></_>
        <_>
          <internalNodes>
            0 -1 124 1.0298702400177717e-03</internalNodes>
          <leafValues>
            -1.6829028725624084e-01 3.4968915581703186e-01</leafValues></_>
        <_>
          <internalNodes>
            0 -1 442 2.8191317687742412e-04</internalNodes>
          <leafValues>
            1.5823553502559662e-01 -3.7418532371520996e-01</leafValues></_></weakClassifiers></_>
    <!-- stage 8 -->
    <_>
      <maxWeakCount>28</maxWeakCount>
      <stageThreshold>-1.0707472562789917e+00</stageThreshold>
      <weakClassifiers>
        <_>
          <internalNodes>
            0 -1 377 -1.5387218445539474e-04</internalNodes>
          <leafValues>
            -3.6253041028976440e-01 4.5827871561050415e-01</leafValues></_>
        <_>
          <internalNodes>
            0 -1 487 -1.1849807575345039e-02</internalNodes>
          <leafValues>
            5.4906201362609863e-01 -1.7728343605995178e-01</leafValues></_>
        <_>
          <internalNodes>
            0 -1 266 2.3558801040053368e-03</internalNodes>
          <leafValues>
            -2.8718751668930054e-01 3.2133448123931885e-01</leafValues></_>
        <_>
          <internalNodes>
            0 -1 443 -4.1299057193100452e-04</internalNodes>
          <leafValues>
            -5.1299667358398438e-01 1.2935513257980347e-01</leafValues></_>
        <_>
          <internalNodes>
            0 -1 193 -4.5574265532195568e-03</internalNodes>
          <leafValues>
            2.8011748194694519e-01 -2.4947182834148407e-01</leafValues></_>
        <_>
          <internalNodes>
            0 -1 261 4.2646005749702454e-04</internalNodes>
          <leafValues>
            -2.1759983897209167e-01 3.2689002156257629e-01</leafValues></_>
        <_>
          <internalNodes>
            0 -1 373 -2.6271739625371993e-04</internalNodes>
          <leafValues>
            -4.2758333683013916e-01 1.2591131031513214e-01</leafValues></_>
        <_>
          <internalNodes>
            0 -1 276 1.6864120261743665e-03</internalNodes>
          <leafValues>
            -2.3665453493595123e-01 3.1111502647399902e-01</leafValues></_>
        <_>
          <internalNodes>
            0 -1 147 -1.0934884194284678e-03</internalNodes>
          <leafValues>
            -5.8665263652801514e-01 9.8198190331459045e-02</leafValues></_>
        <_>
          <internalNodes>
            0 -1 232 4.2465243488550186e-02</internalNodes>
          <leafValues>
            -1.2904721498489380e-01 4.9377599358558655e-01</leafValues></_>
        <_>
          <internalNodes>
            0 -1 351 -3.8345609937096015e-05</internalNodes>
          <leafValues>
            2.7807852625846863e-01 -2.8232491016387939e-01</leafValues></_>
        <_>
          <internalNodes>
            0 -1 141 8.7615370750427246e-02</internalNodes>
          <leafValues>
            7.1135774254798889e-02 -7.7446663379669189e-01</leafValues></_>
        <_>
          <internalNodes>
            0 -1 81 -2.1199163049459457e-02</internalNodes>
          <leafValues>
            -5.4417186975479126e-01 9.1811105608940125e-02</leafValues></_>
        <_>
          <internalNodes>
            0 -1 280 -2.0504849962890148e-03</internalNodes>
          <leafValues>
            3.6028411984443665e-01 -1.7054720222949982e-01</leafValues></_>
        <_>
          <internalNodes>
            0 -1 287 -1.4456292847171426e-03</internalNodes>
          <leafValues>
            4.0909987688064575e-01 -1.4618602395057678e-01</leafValues></_>
        <_>
          <internalNodes>
            0 -1 76 8.3198342472314835e-03</internalNodes>
          <leafValues>
            -1.8494090437889099e-01 3.6116427183151245e-01</leafValues></_>
        <_>
          <internalNodes>
            0 -1 392 -6.6911652684211731e-03</internalNodes>
          <leafValues>
            4.9608847498893738e-01 -1.1595163494348526e-01</leafValues></_>
        <_>
          <internalNodes>
            0 -1 319 5.7510688202455640e-04</internalNodes>
          <leafValues>
            -2.7400523424148560e-01 2.2209754586219788e-01</leafValues></_>
        <_>
          <internalNodes>
            0 -1 343 4.2983982712030411e-03</internalNodes>
          <leafValues>
            6.7792795598506927e-02 -7.0394396781921387e-01</leafValues></_>
        <_>
          <internalNodes>
            0 -1 37 -5.4779904894530773e-03</internalNodes>
          <leafValues>
            4.4181075692176819e-01 -1.2970137596130371e-01</leafValues></_>
        <_>
          <internalNodes>
            0 -1 17 6.6292762756347656e-02</internalNodes>
          <leafValues>
            -1.7631265521049500e-01 4.1745325922966003e-01</leafValues></_>
        <_>
          <internalNodes>
            0 -1 316 -1.0357000865042210e-03</internalNodes>
          <leafValues>
            3.6028438806533813e-01 -1.7578712105751038e-01</leafValues></_>
        <_>
          <internalNodes>
            0 -1 306 5.9254821389913559e-03</internalNodes>
          <leafValues>
            -1.5498924255371094e-01 4.5040574669837952e-01</leafValues></_>
        <_>
          <internalNodes>
            0 -1 397 -2.9465630650520325e-03</internalNodes>
          <leafValues>
            2.3785525560379028e-01 -2.3503585159778595e-01</leafValues></_>
        <_>
          <internalNodes>
            0 -1 362 -9.9354740232229233e-03</internalNodes>
          <leafValues>
            5.6702858209609985e-01 -1.1169663816690445e-01</leafValues></_>
        <_>
          <internalNodes>
            0 -1 129 -2.0510116592049599e-02</internalNodes>
          <leafValues>
            -8.9906263351440430e-01 7.3259629309177399e-02</leafValues></_>
        <_>
          <internalNodes>
            0 -1 453 5.9886684175580740e-04</internalNodes>
          <leafValues>
            -2.2060465812683105e-01 2.4962188303470612e-01</leafValues></_>
        <_>
          <internalNodes>
            0 -1 229 2.3403596132993698e-03</internalNodes>
          <leafValues>
            9.2163123190402985e-02 -5.6516695022583008e-01</leafValues></_></weakClassifiers></_>
    <!-- stage 9 -->
    <_>
      <maxWeakCount>26</maxWeakCount>
      <stageThreshold>-7.9664319753646851e-01</stageThreshold>
      <weakClassifiers>
        <_>
          <internalNodes>
            0 -1 416 -3.4994041197933257e-04</internalNodes>
          <leafValues>
            -4.3258425593376160e-01 4.4965869188308716e-01</leafValues></_>
        <_>
          <internalNodes>
            0 -1 9 4.6761751174926758e-02</internalNodes>
          <leafValues>
            -2.0224511623382568e-01 4.9819451570510864e-01</leafValues></_>
        <_>
          <internalNodes>
            0 -1 236 -2.5613419711589813e-04</internalNodes>
          <leafValues>
            -4.9721953272819519e-01 1.4747099578380585e-01</leafValues></_>
        <_>
          <internalNodes>
            0 -1 308 2.0757829770445824e-02</internalNodes>
          <leafValues>
            -1.9095979630947113e-01 3.7625443935394287e-01</leafValues></_>
        <_>
          <internalNodes>
            0 -1 416 3.7336832610890269e-04</internalNodes>
          <leafValues>
            8.9370593428611755e-02 -5.5658751726150513e-01</leafValues></_>
        <_>
          <internalNodes>
            0 -1 468 -2.0662466064095497e-02</internalNodes>
          <leafValues>
            3.4546434879302979e-01 -1.8280181288719177e-01</leafValues></_>
        <_>
          <internalNodes>
            0 -1 465 1.6376409679651260e-02</internalNodes>
          <leafValues>
            -1.5582032501697540e-01 4.9004325270652771e-01</leafValues></_>
        <_>
          <internalNodes>
            0 -1 273 -1.8640386406332254e-03</internalNodes>
          <leafValues>
            2.4304291605949402e-01 -2.3816050589084625e-01</leafValues></_>
        <_>
          <internalNodes>
            0 -1 117 5.6500963866710663e-02</internalNodes>
          <leafValues>
            7.6240532100200653e-02 -7.4933850765228271e-01</leafValues></_>
        <_>
          <internalNodes>
            0 -1 82 -1.0603123903274536e-01</internalNodes>
          <leafValues>
            -7.4999719858169556e-01 6.4708381891250610e-02</leafValues></_>
        <_>
          <internalNodes>
            0 -1 163 3.6223381757736206e-03</internalNodes>
          <leafValues>
            1.0658383369445801e-01 -4.4956028461456299e-01</leafValues></_>
        <_>
          <internalNodes>
            0 -1 206 5.9559679357334971e-04</internalNodes>
          <leafValues>
            -2.3221935331821442e-01 2.3011960089206696e-01</leafValues></_>
        <_>
          <internalNodes>
            0 -1 271 -1.4056575309950858e-04</internalNodes>
          <leafValues>
            -2.8947117924690247e-01 1.7328879237174988e-01</leafValues></_>
        <_>
          <internalNodes>
            0 -1 347 -6.0598261188715696e-04</internalNodes>
          <leafValues>
            -5.0546181201934814e-01 1.0631970316171646e-01</leafValues></_>
        <_>
          <internalNodes>
            0 -1 279 -4.9797800602391362e-04</internalNodes>
          <leafValues>
            2.8748008608818054e-01 -1.8416252732276917e-01</leafValues></_>
        <_>
          <internalNodes>
            0 -1 53 -1.0658198967576027e-02</internalNodes>
          <leafValues>
            4.3467029929161072e-01 -1.1535315960645676e-01</leafValues></_>
        <_>
          <internalNodes>
            0 -1 445 1.3781638117507100e-03</internalNodes>
          <leafValues>
            -1.2929800152778625e-01 3.7648600339889526e-01</leafValues></_>
        <_>
          <internalNodes>
            0 -1 74 -8.5619464516639709e-03</internalNodes>
          <leafValues>
            3.6874440312385559e-01 -1.3157275319099426e-01</leafValues></_>
        <_>
          <internalNodes>
            0 -1 305 -8.4547363221645355e-03</internalNodes>
          <leafValues>
            4.2495265603065491e-01 -1.1114665120840073e-01</leafValues></_>
        <_>
          <internalNodes>
            0 -1 189 4.0765395388007164e-03</internalNodes>
          <leafValues>
            -2.3680260777473450e-01 2.1432439982891083e-01</leafValues></_>
        <_>
          <internalNodes>
            0 -1 174 -2.8437131550163031e-04</internalNodes>
          <leafValues>
            -5.4768848419189453e-01 1.0617755353450775e-01</leafValues></_>
        <_>
          <internalNodes>
            0 -1 289 -1.2060575187206268e-01</internalNodes>
          <leafValues>
            -7.5137072801589966e-01 5.8834142982959747e-02</leafValues></_>
        <_>
          <internalNodes>
            0 -1 369 4.5354262692853808e-04</internalNodes>
          <leafValues>
            -2.4665045738220215e-01 1.9978345930576324e-01</leafValues></_>
        <_>
          <internalNodes>
            0 -1 307 -6.7700869403779507e-03</internalNodes>
          <leafValues>
            3.4134009480476379e-01 -1.5899340808391571e-01</leafValues></_>
        <_>
          <internalNodes>
            0 -1 127 1.5103891200851649e-04</internalNodes>
          <leafValues>
            1.6132761538028717e-01 -3.4161159396171570e-01</leafValues></_>
        <_>
          <internalNodes>
            0 -1 177 2.6747545227408409e-02</internalNodes>
          <leafValues>
            6.4083337783813477e-02 -7.6967614889144897e-01</leafValues></_></weakClassifiers></_>
    <!-- stage 10 -->
    <_>
      <maxWeakCount>33</maxWeakCount>
      <stageThreshold>-8.8203531503677368e-01</stageThreshold>
      <weakClassifiers>
        <_>
          <internalNodes>
            0 -1 376 2.0659719593822956e-03</internalNodes>
          <leafValues>
            -6.1576355248689651e-02 5.0317794084548950e-01</leafValues></_>
        <_>
          <internalNodes>
            0 -1 269 -1.7940656107384712e-04</internalNodes>
          <leafValues>
            -4.6723106503486633e-01 1.6960607469081879e-01</leafValues></_>
        <_>
          <internalNodes>
            0 -1 336 1.0189227759838104e-03</internalNodes>
          <leafValues>
            -2.7359145879745483e-01 2.2268770635128021e-01</leafValues></_>
        <_>
          <internalNodes>
            0 -1 400 -2.8354994719848037e-04</internalNodes>
          <leafValues>
            -4.3311718106269836e-01 1.4145216345787048e-01</leafValues></_>
        <_>
          <internalNodes>
            0 -1 46 7.0183947682380676e-02</internalNodes>
          <leafValues>
            -9.2358849942684174e-02 5.9132677316665649e-01</leafValues></_>
        <_>
          <internalNodes>
            0 -1 125 -2.5430631358176470e-03</internalNodes>
          <leafValues>
            2.7355173230171204e-01 -2.6209485530853271e-01</leafValues></_>
        <_>
          <internalNodes>
            0 -1 40 5.3910803981125355e-03</internalNodes>
          <leafValues>
            -1.0858576744794846e-01 4.4787827134132385e-01</leafValues></_>
        <_>
          <internalNodes>
            0 -1 334 -3.6384004633873701e-03</internalNodes>
          <leafValues>
            3.8200384378433228e-01 -1.7638675868511200e-01</leafValues></_>
        <_>
          <internalNodes>
            0 -1 292 -5.4117006948217750e-04</internalNodes>
          <leafValues>
            -6.0738319158554077e-01 1.0359433293342590e-01</leafValues></_>
        <_>
          <internalNodes>
            0 -1 180 -1.5571047551929951e-03</internalNodes>
          <leafValues>
            1.9129113852977753e-01 -2.6287120580673218e-01</leafValues></_>
        <_>
          <internalNodes>
            0 -1 440 5.9290928766131401e-04</internalNodes>
          <leafValues>
            1.6413003206253052e-01 -3.6762785911560059e-01</leafValues></_>
        <_>
          <internalNodes>
            0 -1 202 -1.6873694956302643e-02</internalNodes>
          <leafValues>
            2.8932705521583557e-01 -1.8747965991497040e-01</leafValues></_>
        <_>
          <internalNodes>
            0 -1 467 -5.3803492337465286e-02</internalNodes>
          <leafValues>
            3.8753607869148254e-01 -1.3055732846260071e-01</leafValues></_>
        <_>
          <internalNodes>
            0 -1 390 1.6666145529597998e-03</internalNodes>
          <leafValues>
            -1.2001065909862518e-01 4.2244681715965271e-01</leafValues></_>
        <_>
          <internalNodes>
            0 -1 32 4.0149897336959839e-02</internalNodes>
          <leafValues>
            -1.7836545407772064e-01 2.7799615263938904e-01</leafValues></_>
        <_>
          <internalNodes>
            0 -1 18 -1.2322356924414635e-02</internalNodes>
          <leafValues>
            3.7391519546508789e-01 -1.6011843085289001e-01</leafValues></_>
        <_>
          <internalNodes>
            0 -1 414 -4.2219078168272972e-03</internalNodes>
          <leafValues>
            -7.5463563203811646e-01 8.0601707100868225e-02</leafValues></_>
        <_>
          <internalNodes>
            0 -1 217 1.7924718558788300e-03</internalNodes>
          <leafValues>
            -1.8010643124580383e-01 2.8470611572265625e-01</leafValues></_>
        <_>
          <internalNodes>
            0 -1 353 -6.0064392164349556e-03</internalNodes>
          <leafValues>
            3.8288575410842896e-01 -1.1233258247375488e-01</leafValues></_>
        <_>
          <internalNodes>
            0 -1 198 -9.9916672334074974e-03</internalNodes>
          <leafValues>
            2.3305524885654449e-01 -2.7379453182220459e-01</leafValues></_>
        <_>
          <internalNodes>
            0 -1 110 -1.3734579086303711e-01</internalNodes>
          <leafValues>
            -5.6681579351425171e-01 1.0151275992393494e-01</leafValues></_>
        <_>
          <internalNodes>
            0 -1 7 8.8914595544338226e-03</internalNodes>
          <leafValues>
            -1.0810434073209763e-01 4.7473984956741333e-01</leafValues></_>
        <_>
          <internalNodes>
            0 -1 375 5.2888412028551102e-03</internalNodes>
          <leafValues>
            7.9653955996036530e-02 -7.1424973011016846e-01</leafValues></_>
        <_>
          <internalNodes>
            0 -1 138 -2.1054830402135849e-02</internalNodes>
          <leafValues>
            3.4877258539199829e-01 -1.5420757234096527e-01</leafValues></_>
        <_>
          <internalNodes>
            0 -1 394 2.7240850031375885e-03</internalNodes>
          <leafValues>
            -1.7463704943656921e-01 3.1026744842529297e-01</leafValues></_>
        <_>
          <internalNodes>
            0 -1 342 -2.7876801323145628e-04</internalNodes>
          <leafValues>
            -5.6150156259536743e-01 1.0348576307296753e-01</leafValues></_>
        <_>
          <internalNodes>
            0 -1 204 1.4724634820595384e-03</internalNodes>
          <leafValues>
            -1.1664684861898422e-01 4.8167431354522705e-01</leafValues></_>
        <_>
          <internalNodes>
            0 -1 175 4.7382265329360962e-03</internalNodes>
          <leafValues>
            8.0140061676502228e-02 -7.7576011419296265e-01</leafValues></_>
        <_>
          <internalNodes>
            0 -1 205 -1.0820722673088312e-03</internalNodes>
          <leafValues>
            2.3317345976829529e-01 -1.9358831644058228e-01</leafValues></_>
        <_>
          <internalNodes>
            0 -1 169 -6.6409138962626457e-03</internalNodes>
          <leafValues>
            3.9057841897010803e-01 -1.3521723449230194e-01</leafValues></_>
        <_>
          <internalNodes>
            0 -1 62 -8.9939184486865997e-02</internalNodes>
          <leafValues>
            -7.6603257656097412e-01 6.9366432726383209e-02</leafValues></_>
        <_>
          <internalNodes>
            0 -1 300 -5.6896079331636429e-03</internalNodes>
          <leafValues>
            -9.3325501680374146e-01 3.4533474594354630e-02</leafValues></_>
        <_>
          <internalNodes>
            0 -1 481 -2.3574917577207088e-03</internalNodes>
          <leafValues>
            2.7698281407356262e-01 -1.6969713568687439e-01</leafValues></_></weakClassifiers></_>
    <!-- stage 11 -->
    <_>
      <maxWeakCount>31</maxWeakCount>
      <stageThreshold>-7.4189418554306030e-01</stageThreshold>
      <weakClassifiers>
        <_>
          <internalNodes>
            0 -1 285 1.5767496079206467e-02</internalNodes>
          <leafValues>
            4.4798783957958221e-02 6.0809832811355591e-01</leafValues></_>
        <_>
          <internalNodes>
            0 -1 272 5.1690015243366361e-04</internalNodes>
          <leafValues>
            1.7696434259414673e-01 -5.3069627285003662e-01</leafValues></_>
        <_>
          <internalNodes>
            0 -1 313 -6.2254682183265686e-02</internalNodes>
          <leafValues>
            4.1393762826919556e-01 -1.6180276870727539e-01</leafValues></_>
        <_>
          <internalNodes>
            0 -1 420 -3.1604888499714434e-04</internalNodes>
          <leafValues>
            -5.1329672336578369e-01 1.2203079462051392e-01</leafValues></_>
        <_>
          <internalNodes>
            0 -1 312 2.4757828563451767e-02</internalNodes>
          <leafValues>
            -1.5674839913845062e-01 3.8747733831405640e-01</leafValues></_>
        <_>
          <internalNodes>
            0 -1 96 -9.7868494689464569e-02</internalNodes>
          <leafValues>
            3.7734752893447876e-01 -1.4759685099124908e-01</leafValues></_>
        <_>
          <internalNodes>
            0 -1 286 -4.3674305081367493e-02</internalNodes>
          <leafValues>
            4.4691076874732971e-01 -1.4840678870677948e-01</leafValues></_>
        <_>
          <internalNodes>
            0 -1 13 4.1797466576099396e-02</internalNodes>
          <leafValues>
            -1.4790639281272888e-01 3.4878134727478027e-01</leafValues></_>
        <_>
          <internalNodes>
            0 -1 1 -5.2104614675045013e-02</internalNodes>
          <leafValues>
            5.1008570194244385e-01 -1.2115586549043655e-01</leafValues></_>
        <_>
          <internalNodes>
            0 -1 457 -5.9234112501144409e-02</internalNodes>
          <leafValues>
            3.3979967236518860e-01 -1.3870063424110413e-01</leafValues></_>
        <_>
          <internalNodes>
            0 -1 245 6.6861615050584078e-04</internalNodes>
          <leafValues>
            -2.4154274165630341e-01 2.2070655226707458e-01</leafValues></_>
        <_>
          <internalNodes>
            0 -1 229 4.3340502306818962e-03</internalNodes>
          <leafValues>
            6.1390932649374008e-02 -9.4115340709686279e-01</leafValues></_>
        <_>
          <internalNodes>
            0 -1 485 1.4397648628801107e-03</internalNodes>
          <leafValues>
            -1.9159200787544250e-01 2.5616246461868286e-01</leafValues></_>
        <_>
          <internalNodes>
            0 -1 243 7.2797477245330811e-02</internalNodes>
          <leafValues>
            -6.8932235240936279e-02 7.2265011072158813e-01</leafValues></_>
        <_>
          <internalNodes>
            0 -1 247 1.0344336740672588e-02</internalNodes>
          <leafValues>
            -1.0235873609781265e-01 4.2088365554809570e-01</leafValues></_>
        <_>
          <internalNodes>
            0 -1 270 -1.3643482816405594e-04</internalNodes>
          <leafValues>
            -3.9394941926002502e-01 1.3488551974296570e-01</leafValues></_>
        <_>
          <internalNodes>
            0 -1 22 -1.8728175200521946e-03</internalNodes>
          <leafValues>
            3.4324988722801208e-01 -1.5144763886928558e-01</leafValues></_>
        <_>
          <internalNodes>
            0 -1 448 2.5116112083196640e-02</internalNodes>
          <leafValues>
            9.1793328523635864e-02 -5.2101516723632812e-01</leafValues></_>
        <_>
          <internalNodes>
            0 -1 116 -1.1748753022402525e-03</internalNodes>
          <leafValues>
            2.1696648001670837e-01 -2.1921811997890472e-01</leafValues></_>
        <_>
          <internalNodes>
            0 -1 108 -1.9945818930864334e-02</internalNodes>
          <leafValues>
            5.6958550214767456e-01 -9.3807093799114227e-02</leafValues></_>
        <_>
          <internalNodes>
            0 -1 463 -3.1808357685804367e-02</internalNodes>
          <leafValues>
            4.5834255218505859e-01 -1.0298198461532593e-01</leafValues></_>
        <_>
          <internalNodes>
            0 -1 349 -1.0437824530526996e-03</internalNodes>
          <leafValues>
            -5.6649643182754517e-01 8.8110297918319702e-02</leafValues></_>
        <_>
          <internalNodes>
            0 -1 265 9.6573296468704939e-04</internalNodes>
          <leafValues>
            -1.7188723385334015e-01 2.5561243295669556e-01</leafValues></_>
        <_>
          <internalNodes>
            0 -1 50 -5.6647308170795441e-02</internalNodes>
          <leafValues>
            -6.4986389875411987e-01 6.9879099726676941e-02</leafValues></_>
        <_>
          <internalNodes>
            0 -1 435 -1.6147962305694818e-03</internalNodes>
          <leafValues>
            2.3287412524223328e-01 -1.8661129474639893e-01</leafValues></_>
        <_>
          <internalNodes>
            0 -1 148 -6.6180620342493057e-04</internalNodes>
          <leafValues>
            -5.2225571870803833e-01 9.0996511280536652e-02</leafValues></_>
        <_>
          <internalNodes>
            0 -1 358 -2.1389529574662447e-03</internalNodes>
          <leafValues>
            3.1182277202606201e-01 -1.6417263448238373e-01</leafValues></_>
        <_>
          <internalNodes>
            0 -1 432 3.9939835551194847e-04</internalNodes>
          <leafValues>
            -1.9949546456336975e-01 2.5022053718566895e-01</leafValues></_>
        <_>
          <internalNodes>
            0 -1 209 -2.0885834237560630e-04</internalNodes>
          <leafValues>
            -3.4173619747161865e-01 1.4227306842803955e-01</leafValues></_>
        <_>
          <internalNodes>
            0 -1 69 2.6552868075668812e-03</internalNodes>
          <leafValues>
            -2.1451865136623383e-01 1.9338263571262360e-01</leafValues></_>
        <_>
          <internalNodes>
            0 -1 203 5.8404204901307821e-04</internalNodes>
          <leafValues>
            -1.7611032724380493e-01 3.0385878682136536e-01</leafValues></_></weakClassifiers></_>
    <!-- stage 12 -->
    <_>
      <maxWeakCount>27</maxWeakCount>
      <stageThreshold>-7.3592263460159302e-01</stageThreshold>
      <weakClassifiers>
        <_>
          <internalNodes>
            0 -1 383 -2.0477693760767579e-04</internalNodes>
          <leafValues>
            -2.3314066231250763e-01 4.6813389658927917e-01</leafValues></_>
        <_>
          <internalNodes>
            0 -1 54 9.8279088735580444e-02</internalNodes>
          <leafValues>
            -1.7610022425651550e-01 4.0387642383575439e-01</leafValues></_>
        <_>
          <internalNodes>
            0 -1 274 4.9322482664138079e-04</internalNodes>
          <leafValues>
            1.3922706246376038e-01 -4.3230724334716797e-01</leafValues></_>
        <_>
          <internalNodes>
            0 -1 207 -1.6361888265237212e-04</internalNodes>
          <leafValues>
            2.2436708211898804e-01 -2.7468830347061157e-01</leafValues></_>
        <_>
          <internalNodes>
            0 -1 424 -2.5789546780288219e-03</internalNodes>
          <leafValues>
            3.6300688982009888e-01 -1.3916258513927460e-01</leafValues></_>
        <_>
          <internalNodes>
            0 -1 387 -2.0485571585595608e-03</internalNodes>
          <leafValues>
            2.8853982686996460e-01 -2.3980616033077240e-01</leafValues></_>
        <_>
          <internalNodes>
            0 -1 195 9.4143080059438944e-04</internalNodes>
          <leafValues>
            -1.7567256093025208e-01 2.9987278580665588e-01</leafValues></_>
        <_>
          <internalNodes>
            0 -1 228 -4.3511088006198406e-04</internalNodes>
          <leafValues>
            -6.1450231075286865e-01 6.9722481071949005e-02</leafValues></_>
        <_>
          <internalNodes>
            0 -1 283 -5.5098859593272209e-04</internalNodes>
          <leafValues>
            2.8240257501602173e-01 -2.0758326351642609e-01</leafValues></_>
        <_>
          <internalNodes>
            0 -1 66 5.6606277823448181e-02</internalNodes>
          <leafValues>
            -1.3880358636379242e-01 4.2863190174102783e-01</leafValues></_>
        <_>
          <internalNodes>
            0 -1 337 -5.6275703012943268e-02</internalNodes>
          <leafValues>
            5.6219989061355591e-01 -9.8702833056449890e-02</leafValues></_>
        <_>
          <internalNodes>
            0 -1 171 2.7822190895676613e-03</internalNodes>
          <leafValues>
            -1.9366317987442017e-01 2.8057113289833069e-01</leafValues></_>
        <_>
          <internalNodes>
            0 -1 299 -7.4372312519699335e-04</internalNodes>
          <leafValues>
            -4.6018540859222412e-01 1.0489208996295929e-01</leafValues></_>
        <_>
          <internalNodes>
            0 -1 109 7.2771511971950531e-02</internalNodes>
          <leafValues>
            6.5004028379917145e-02 -8.1127399206161499e-01</leafValues></_>
        <_>
          <internalNodes>
            0 -1 290 -1.5942049026489258e-01</internalNodes>
          <leafValues>
            -7.8974229097366333e-01 4.7079399228096008e-02</leafValues></_>
        <_>
          <internalNodes>
            0 -1 382 -2.5648908922448754e-04</internalNodes>
          <leafValues>
            -3.4224373102188110e-01 1.2363537400960922e-01</leafValues></_>
        <_>
          <internalNodes>
            0 -1 473 2.0227453205734491e-03</internalNodes>
          <leafValues>
            -1.6968210041522980e-01 2.6698711514472961e-01</leafValues></_>
        <_>
          <internalNodes>
            0 -1 456 -1.9472558051347733e-02</internalNodes>
          <leafValues>
            4.0862622857093811e-01 -1.3968479633331299e-01</leafValues></_>
        <_>
          <internalNodes>
            0 -1 121 -1.1394498869776726e-03</internalNodes>
          <leafValues>
            2.1107093989849091e-01 -2.2353658080101013e-01</leafValues></_>
        <_>
          <internalNodes>
            0 -1 153 4.9697179347276688e-03</internalNodes>
          <leafValues>
            -1.5766455233097076e-01 3.2766222953796387e-01</leafValues></_>
        <_>
          <internalNodes>
            0 -1 200 -3.5640965215861797e-03</internalNodes>
          <leafValues>
            3.3545204997062683e-01 -1.5662977099418640e-01</leafValues></_>
        <_>
          <internalNodes>
            0 -1 325 -1.1543616710696369e-04</internalNodes>
          <leafValues>
            -3.9579656720161438e-01 1.4103552699089050e-01</leafValues></_>
        <_>
          <internalNodes>
            0 -1 48 -5.1647104322910309e-02</internalNodes>
          <leafValues>
            -5.9160208702087402e-01 7.0554777979850769e-02</leafValues></_>
        <_>
          <internalNodes>
            0 -1 238 5.0089787691831589e-03</internalNodes>
          <leafValues>
            -2.5059342384338379e-01 1.8767368793487549e-01</leafValues></_>
        <_>
          <internalNodes>
            0 -1 185 3.2848954200744629e-02</internalNodes>
          <leafValues>
            9.4513967633247375e-02 -5.1054972410202026e-01</leafValues></_>
        <_>
          <internalNodes>
            0 -1 366 7.4558623600751162e-04</internalNodes>
          <leafValues>
            -1.3682794570922852e-01 3.4982386231422424e-01</leafValues></_>
        <_>
          <internalNodes>
            0 -1 407 -5.2571704145520926e-04</internalNodes>
          <leafValues>
            2.2602295875549316e-01 -1.9724668562412262e-01</leafValues></_></weakClassifiers></_>
    <!-- stage 13 -->
    <_>
      <maxWeakCount>33</maxWeakCount>
      <stageThreshold>-7.2245889902114868e-01</stageThreshold>
      <weakClassifiers>
        <_>
          <internalNodes>
            0 -1 326 -3.2839369960129261e-03</internalNodes>
          <leafValues>
            5.5204218626022339e-01 5.2453469485044479e-02</leafValues></_>
        <_>
          <internalNodes>
            0 -1 15 5.6890849024057388e-02</internalNodes>
          <leafValues>
            -1.1484298110008240e-01 4.9774208664894104e-01</leafValues></_>
        <_>
          <internalNodes>
            0 -1 377 -1.3202667469158769e-04</internalNodes>
          <leafValues>
            -5.1191830635070801e-01 1.2174565345048904e-01</leafValues></_>
        <_>
          <internalNodes>
            0 -1 377 2.6035122573375702e-04</internalNodes>
          <leafValues>
            1.3319273293018341e-01 -3.8794064521789551e-01</leafValues></_>
        <_>
          <internalNodes>
            0 -1 354 1.2733187526464462e-02</internalNodes>
          <leafValues>
            -2.5547710061073303e-01 2.7773413062095642e-01</leafValues></_>
        <_>
          <internalNodes>
            0 -1 488 -8.9281741529703140e-03</internalNodes>
          <leafValues>
            4.6455997228622437e-01 -8.9680857956409454e-02</leafValues></_>
        <_>
          <internalNodes>
            0 -1 480 -5.6684422306716442e-03</internalNodes>
          <leafValues>
            3.5359317064285278e-01 -1.6746348142623901e-01</leafValues></_>
        <_>
          <internalNodes>
            0 -1 5 -1.8135884404182434e-01</internalNodes>
          <leafValues>
            6.1596006155014038e-01 -5.8223322033882141e-02</leafValues></_>
        <_>
          <internalNodes>
            0 -1 145 3.2510986784473062e-04</internalNodes>
          <leafValues>
            -2.3756447434425354e-01 1.8708270788192749e-01</leafValues></_>
        <_>
          <internalNodes>
            0 -1 95 2.7634691447019577e-02</internalNodes>
          <leafValues>
            7.4171528220176697e-02 -6.4169102907180786e-01</leafValues></_>
        <_>
          <internalNodes>
            0 -1 478 8.6357258260250092e-04</internalNodes>
          <leafValues>
            -1.6168048977851868e-01 2.8978592157363892e-01</leafValues></_>
        <_>
          <internalNodes>
            0 -1 113 3.6870043724775314e-02</internalNodes>
          <leafValues>
            8.5028395056724548e-02 -5.8439987897872925e-01</leafValues></_>
        <_>
          <internalNodes>
            0 -1 361 8.8763497769832611e-03</internalNodes>
          <leafValues>
            -1.0388286411762238e-01 4.4909486174583435e-01</leafValues></_>
        <_>
          <internalNodes>
            0 -1 197 1.1699587339535356e-03</internalNodes>
          <leafValues>
            -2.2402842342853546e-01 2.3446221649646759e-01</leafValues></_>
        <_>
          <internalNodes>
            0 -1 348 -5.0287460908293724e-04</internalNodes>
          <leafValues>
            -5.3702247142791748e-01 8.4663078188896179e-02</leafValues></_>
        <_>
          <internalNodes>
            0 -1 415 -1.7147444305010140e-04</internalNodes>
          <leafValues>
            -3.9211159944534302e-01 1.0126895457506180e-01</leafValues></_>
        <_>
          <internalNodes>
            0 -1 374 7.5433563324622810e-05</internalNodes>
          <leafValues>
            -2.4677857756614685e-01 2.1788316965103149e-01</leafValues></_>
        <_>
          <internalNodes>
            0 -1 355 3.0122643336653709e-02</internalNodes>
          <leafValues>
            -6.7152157425880432e-02 6.0028547048568726e-01</leafValues></_>
        <_>
          <internalNodes>
            0 -1 77 8.9726634323596954e-03</internalNodes>
          <leafValues>
            -1.5373243391513824e-01 2.6240891218185425e-01</leafValues></_>
        <_>
          <internalNodes>
            0 -1 144 4.8644475638866425e-02</internalNodes>
          <leafValues>
            5.6158795952796936e-02 -7.3404550552368164e-01</leafValues></_>
        <_>
          <internalNodes>
            0 -1 267 -5.6228274479508400e-03</internalNodes>
          <leafValues>
            2.3932696878910065e-01 -1.7113293707370758e-01</leafValues></_>
        <_>
          <internalNodes>
            0 -1 38 5.4401062428951263e-02</internalNodes>
          <leafValues>
            -5.9173725545406342e-02 7.2628492116928101e-01</leafValues></_>
        <_>
          <internalNodes>
            0 -1 230 3.6817061481997371e-04</internalNodes>
          <leafValues>
            1.6601675748825073e-01 -3.3526843786239624e-01</leafValues></_>
        <_>
          <internalNodes>
            0 -1 168 -4.7833644784986973e-03</internalNodes>
          <leafValues>
            3.3095639944076538e-01 -1.4840301871299744e-01</leafValues></_>
        <_>
          <internalNodes>
            0 -1 459 -7.8411206603050232e-02</internalNodes>
          <leafValues>
            2.9174053668975830e-01 -1.4361026883125305e-01</leafValues></_>
        <_>
          <internalNodes>
            0 -1 367 -1.0644033318385482e-03</internalNodes>
          <leafValues>
            3.1598120927810669e-01 -1.1893865466117859e-01</leafValues></_>
        <_>
          <internalNodes>
            0 -1 400 2.0457513164728880e-04</internalNodes>
          <leafValues>
            1.0925064235925674e-01 -4.0303412079811096e-01</leafValues></_>
        <_>
          <internalNodes>
            0 -1 119 8.3509813994169235e-03</internalNodes>
          <leafValues>
            -2.1067799627780914e-01 1.8378508090972900e-01</leafValues></_>
        <_>
          <internalNodes>
            0 -1 157 -5.8412842452526093e-02</internalNodes>
          <leafValues>
            -7.0841598510742188e-01 5.0383079797029495e-02</leafValues></_>
        <_>
          <internalNodes>
            0 -1 385 3.6965183913707733e-02</internalNodes>
          <leafValues>
            -8.1750743091106415e-02 5.1660054922103882e-01</leafValues></_>
        <_>
          <internalNodes>
            0 -1 422 -4.3600995559245348e-04</internalNodes>
          <leafValues>
            -4.6298506855964661e-01 9.1245427727699280e-02</leafValues></_>
        <_>
          <internalNodes>
            0 -1 154 -6.0341838980093598e-04</internalNodes>
          <leafValues>
            2.5458544492721558e-01 -1.5848867595195770e-01</leafValues></_>
        <_>
          <internalNodes>
            0 -1 71 7.9728759825229645e-02</internalNodes>
          <leafValues>
            9.7678005695343018e-02 -4.0670591592788696e-01</leafValues></_></weakClassifiers></_>
    <!-- stage 14 -->
    <_>
      <maxWeakCount>35</maxWeakCount>
      <stageThreshold>-8.0257230997085571e-01</stageThreshold>
      <weakClassifiers>
        <_>
          <internalNodes>
            0 -1 370 8.8279054034501314e-04</internalNodes>
          <leafValues>
            -2.3752968758344650e-02 4.9515607953071594e-01</leafValues></_>
        <_>
          <internalNodes>
            0 -1 136 8.6332540959119797e-03</internalNodes>
          <leafValues>
            -1.9149191677570343e-01 3.0338671803474426e-01</leafValues></_>
        <_>
          <internalNodes>
            0 -1 325 3.3911151695065200e-04</internalNodes>
          <leafValues>
            1.2537173926830292e-01 -4.5223543047904968e-01</leafValues></_>
        <_>
          <internalNodes>
            0 -1 218 -7.1669754106551409e-04</internalNodes>
          <leafValues>
            2.5083923339843750e-01 -2.1948996186256409e-01</leafValues></_>
        <_>
          <internalNodes>
            0 -1 225 2.9024133458733559e-02</internalNodes>
          <leafValues>
            8.2611322402954102e-02 -6.4983475208282471e-01</leafValues></_>
        <_>
          <internalNodes>
            0 -1 258 -4.1178949177265167e-03</internalNodes>
          <leafValues>
            3.2959687709808350e-01 -1.5669232606887817e-01</leafValues></_>
        <_>
          <internalNodes>
            0 -1 168 -1.8880396382883191e-03</internalNodes>
          <leafValues>
            2.5618308782577515e-01 -2.1115911006927490e-01</leafValues></_>
        <_>
          <internalNodes>
            0 -1 453 4.6795644448138773e-04</internalNodes>
          <leafValues>
            -2.2357316315174103e-01 2.7119860053062439e-01</leafValues></_>
        <_>
          <internalNodes>
            0 -1 443 -2.5352972443215549e-04</internalNodes>
          <leafValues>
            -4.3380486965179443e-01 9.7788885235786438e-02</leafValues></_>
        <_>
          <internalNodes>
            0 -1 452 -1.7605780158191919e-04</internalNodes>
          <leafValues>
            -2.9348930716514587e-01 1.8064486980438232e-01</leafValues></_>
        <_>
          <internalNodes>
            0 -1 364 -6.2881618738174438e-02</internalNodes>
          <leafValues>
            4.0755325555801392e-01 -1.3704033195972443e-01</leafValues></_>
        <_>
          <internalNodes>
            0 -1 356 1.0027445852756500e-02</internalNodes>
          <leafValues>
            -8.5556834936141968e-02 5.4771167039871216e-01</leafValues></_>
        <_>
          <internalNodes>
            0 -1 404 -5.4525566520169377e-04</internalNodes>
          <leafValues>
            2.6619496941566467e-01 -1.6731601953506470e-01</leafValues></_>
        <_>
          <internalNodes>
            0 -1 324 -2.5385725894011557e-04</internalNodes>
          <leafValues>
            -4.8640319705009460e-01 9.0287953615188599e-02</leafValues></_>
        <_>
          <internalNodes>
            0 -1 329 5.7825131807476282e-04</internalNodes>
          <leafValues>
            -1.4557248353958130e-01 3.8293924927711487e-01</leafValues></_>
        <_>
          <internalNodes>
            0 -1 20 4.0891595184803009e-02</internalNodes>
          <leafValues>
            -1.4659491181373596e-01 3.2616949081420898e-01</leafValues></_>
        <_>
          <internalNodes>
            0 -1 28 -2.5352284312248230e-02</internalNodes>
          <leafValues>
            4.3116211891174316e-01 -9.5632590353488922e-02</leafValues></_>
        <_>
          <internalNodes>
            0 -1 450 4.6917551662772894e-04</internalNodes>
          <leafValues>
            -1.7210544645786285e-01 2.5083789229393005e-01</leafValues></_>
        <_>
          <internalNodes>
            0 -1 461 4.1354785207659006e-04</internalNodes>
          <leafValues>
            -1.4764949679374695e-01 2.9474651813507080e-01</leafValues></_>
        <_>
          <internalNodes>
            0 -1 288 -9.5827574841678143e-04</internalNodes>
          <leafValues>
            3.8069412112236023e-01 -1.1510940641164780e-01</leafValues></_>
        <_>
          <internalNodes>
            0 -1 70 7.1222074329853058e-03</internalNodes>
          <leafValues>
            7.9139947891235352e-02 -5.7411748170852661e-01</leafValues></_>
        <_>
          <internalNodes>
            0 -1 196 -1.9583841785788536e-03</internalNodes>
          <leafValues>
            2.0738349854946136e-01 -1.9753457605838776e-01</leafValues></_>
        <_>
          <internalNodes>
            0 -1 438 1.7068378627300262e-02</internalNodes>
          <leafValues>
            5.8553803712129593e-02 -7.8595376014709473e-01</leafValues></_>
        <_>
          <internalNodes>
            0 -1 223 -5.4744532098993659e-04</internalNodes>
          <leafValues>
            2.2458793222904205e-01 -1.8688195943832397e-01</leafValues></_>
        <_>
          <internalNodes>
            0 -1 292 -8.3475071005523205e-04</internalNodes>
          <leafValues>
            -6.7197370529174805e-01 6.0799814760684967e-02</leafValues></_>
        <_>
          <internalNodes>
            0 -1 332 1.4076604275032878e-03</internalNodes>
          <leafValues>
            -1.2506371736526489e-01 3.6212259531021118e-01</leafValues></_>
        <_>
          <internalNodes>
            0 -1 333 -7.7800021972507238e-04</internalNodes>
          <leafValues>
            2.0988096296787262e-01 -2.1595685184001923e-01</leafValues></_>
        <_>
          <internalNodes>
            0 -1 342 -4.7039898345246911e-04</internalNodes>
          <leafValues>
            -6.6066539287567139e-01 5.8792904019355774e-02</leafValues></_>
        <_>
          <internalNodes>
            0 -1 184 1.4153186930343509e-03</internalNodes>
          <leafValues>
            -1.8238899111747742e-01 2.4625499546527863e-01</leafValues></_>
        <_>
          <internalNodes>
            0 -1 140 -8.1210173666477203e-03</internalNodes>
          <leafValues>
            3.6087068915367126e-01 -1.2005621194839478e-01</leafValues></_>
        <_>
          <internalNodes>
            0 -1 114 -3.7120177876204252e-04</internalNodes>
          <leafValues>
            2.0392838120460510e-01 -2.1678729355335236e-01</leafValues></_>
        <_>
          <internalNodes>
            0 -1 57 9.8412223160266876e-02</internalNodes>
          <leafValues>
            1.0216096043586731e-01 -4.2255520820617676e-01</leafValues></_>
        <_>
          <internalNodes>
            0 -1 91 -4.4399686157703400e-02</internalNodes>
          <leafValues>
            -6.4366006851196289e-01 7.9685710370540619e-02</leafValues></_>
        <_>
          <internalNodes>
            0 -1 126 6.3403910025954247e-03</internalNodes>
          <leafValues>
            -2.2274231910705566e-01 2.1036826074123383e-01</leafValues></_>
        <_>
          <internalNodes>
            0 -1 143 4.2197513394057751e-03</internalNodes>
          <leafValues>
            -2.2282713651657104e-01 1.7501857876777649e-01</leafValues></_></weakClassifiers></_>
    <!-- stage 15 -->
    <_>
      <maxWeakCount>37</maxWeakCount>
      <stageThreshold>-8.1032955646514893e-01</stageThreshold>
      <weakClassifiers>
        <_>
          <internalNodes>
            0 -1 162 1.9160124938935041e-03</internalNodes>
          <leafValues>
            4.4198644161224365e-01 -1.6288660466670990e-01</leafValues></_>
        <_>
          <internalNodes>
            0 -1 27 2.6257213205099106e-02</internalNodes>
          <leafValues>
            -2.2739657759666443e-01 3.0440661311149597e-01</leafValues></_>
        <_>
          <internalNodes>
            0 -1 295 -4.4851761776953936e-04</internalNodes>
          <leafValues>
            -6.4276492595672607e-01 8.6193591356277466e-02</leafValues></_>
        <_>
          <internalNodes>
            0 -1 318 1.5212889411486685e-04</internalNodes>
          <leafValues>
            -3.1624099612236023e-01 1.6052581369876862e-01</leafValues></_>
        <_>
          <internalNodes>
            0 -1 291 2.8517859755083919e-04</internalNodes>
          <leafValues>
            1.2882217764854431e-01 -3.6964496970176697e-01</leafValues></_>
        <_>
          <internalNodes>
            0 -1 379 -2.6986951706930995e-04</internalNodes>
          <leafValues>
            -4.8085629940032959e-01 8.9741572737693787e-02</leafValues></_>
        <_>
          <internalNodes>
            0 -1 379 4.4568674638867378e-04</internalNodes>
          <leafValues>
            1.2227509915828705e-01 -3.5615870356559753e-01</leafValues></_>
        <_>
          <internalNodes>
            0 -1 372 2.4497644044458866e-03</internalNodes>
          <leafValues>
            -2.4139079451560974e-01 1.8452705442905426e-01</leafValues></_>
        <_>
          <internalNodes>
            0 -1 444 9.2177675105631351e-04</internalNodes>
          <leafValues>
            -2.0264638960361481e-01 2.7631524205207825e-01</leafValues></_>
        <_>
          <internalNodes>
            0 -1 2 -3.4149125218391418e-02</internalNodes>
          <leafValues>
            3.7521305680274963e-01 -1.5849345922470093e-01</leafValues></_>
        <_>
          <internalNodes>
            0 -1 484 1.3219616375863552e-03</internalNodes>
          <leafValues>
            -1.3926261663436890e-01 3.4067255258560181e-01</leafValues></_>
        <_>
          <internalNodes>
            0 -1 482 -1.9353722454980016e-03</internalNodes>
          <leafValues>
            3.3279094099998474e-01 -1.5809431672096252e-01</leafValues></_>
        <_>
          <internalNodes>
            0 -1 393 1.0288364719599485e-03</internalNodes>
          <leafValues>
            -2.6102131605148315e-01 1.7196132242679596e-01</leafValues></_>
        <_>
          <internalNodes>
            0 -1 234 8.3292081952095032e-02</internalNodes>
          <leafValues>
            -1.1283510923385620e-01 5.1418715715408325e-01</leafValues></_>
        <_>
          <internalNodes>
            0 -1 430 -5.5076539516448975e-02</internalNodes>
          <leafValues>
            -7.1903634071350098e-01 7.6861828565597534e-02</leafValues></_>
        <_>
          <internalNodes>
            0 -1 371 1.0401776671642438e-04</internalNodes>
          <leafValues>
            -2.3490688204765320e-01 1.9159841537475586e-01</leafValues></_>
        <_>
          <internalNodes>
            0 -1 182 -4.2504188604652882e-04</internalNodes>
          <leafValues>
            -4.6849945187568665e-01 8.5220299661159515e-02</leafValues></_>
        <_>
          <internalNodes>
            0 -1 257 8.4654835518449545e-04</internalNodes>
          <leafValues>
            -1.2828277051448822e-01 3.2708415389060974e-01</leafValues></_>
        <_>
          <internalNodes>
            0 -1 257 -4.5339841744862497e-04</internalNodes>
          <leafValues>
            2.2599627077579498e-01 -1.7961628735065460e-01</leafValues></_>
        <_>
          <internalNodes>
            0 -1 107 6.3272483646869659e-02</internalNodes>
          <leafValues>
            8.3269916474819183e-02 -5.5640339851379395e-01</leafValues></_>
        <_>
          <internalNodes>
            0 -1 166 1.1415146291255951e-02</internalNodes>
          <leafValues>
            -9.8961457610130310e-02 3.8520067930221558e-01</leafValues></_>
        <_>
          <internalNodes>
            0 -1 219 -4.3463157489895821e-03</internalNodes>
          <leafValues>
            3.3793976902961731e-01 -1.0681606084108353e-01</leafValues></_>
        <_>
          <internalNodes>
            0 -1 388 -1.3761692680418491e-03</internalNodes>
          <leafValues>
            2.3203778266906738e-01 -1.6355966031551361e-01</leafValues></_>
        <_>
          <internalNodes>
            0 -1 421 -2.1960563026368618e-04</internalNodes>
          <leafValues>
            -2.9814231395721436e-01 1.4857040345668793e-01</leafValues></_>
        <_>
          <internalNodes>
            0 -1 441 -2.2822730534244329e-04</internalNodes>
          <leafValues>
            -3.4180125594139099e-01 1.1081060022115707e-01</leafValues></_>
        <_>
          <internalNodes>
            0 -1 60 -3.3660300076007843e-02</internalNodes>
          <leafValues>
            -5.6936305761337280e-01 6.0050323605537415e-02</leafValues></_>
        <_>
          <internalNodes>
            0 -1 85 5.9921175241470337e-02</internalNodes>
          <leafValues>
            5.4161220788955688e-02 -7.0049291849136353e-01</leafValues></_>
        <_>
          <internalNodes>
            0 -1 368 -1.3373089954257011e-02</internalNodes>
          <leafValues>
            2.9386639595031738e-01 -1.3979499042034149e-01</leafValues></_>
        <_>
          <internalNodes>
            0 -1 253 1.3109282590448856e-02</internalNodes>
          <leafValues>
            -1.2969462573528290e-01 3.2555544376373291e-01</leafValues></_>
        <_>
          <internalNodes>
            0 -1 212 -1.3938451884314418e-03</internalNodes>
          <leafValues>
            -6.8982326984405518e-01 6.3197039067745209e-02</leafValues></_>
        <_>
          <internalNodes>
            0 -1 410 4.6770393964834511e-05</internalNodes>
          <leafValues>
            -2.2460861504077911e-01 1.6294074058532715e-01</leafValues></_>
        <_>
          <internalNodes>
            0 -1 159 1.1538748629391193e-02</internalNodes>
          <leafValues>
            -1.3725616037845612e-01 3.0194768309593201e-01</leafValues></_>
        <_>
          <internalNodes>
            0 -1 208 -7.0167938247323036e-05</internalNodes>
          <leafValues>
            -2.6843586564064026e-01 1.5462049841880798e-01</leafValues></_>
        <_>
          <internalNodes>
            0 -1 92 2.9160110279917717e-03</internalNodes>
          <leafValues>
            1.3689738512039185e-01 -2.7501019835472107e-01</leafValues></_>
        <_>
          <internalNodes>
            0 -1 396 -9.9863973446190357e-04</internalNodes>
          <leafValues>
            1.7027564346790314e-01 -2.1854844689369202e-01</leafValues></_>
        <_>
          <internalNodes>
            0 -1 11 -3.2236948609352112e-02</internalNodes>
          <leafValues>
            5.6297689676284790e-01 -7.6763361692428589e-02</leafValues></_>
        <_>
          <internalNodes>
            0 -1 4 5.4616823792457581e-02</internalNodes>
          <leafValues>
            -1.8180496990680695e-01 2.3242811858654022e-01</leafValues></_></weakClassifiers></_>
    <!-- stage 16 -->
    <_>
      <maxWeakCount>45</maxWeakCount>
      <stageThreshold>-9.4144546985626221e-01</stageThreshold>
      <weakClassifiers>
        <_>
          <internalNodes>
            0 -1 381 2.2489382536150515e-04</internalNodes>
          <leafValues>
            4.2757719755172729e-01 -2.0698253810405731e-01</leafValues></_>
        <_>
          <internalNodes>
            0 -1 63 -2.4529534857720137e-04</internalNodes>
          <leafValues>
            2.3374329507350922e-01 -2.5851434469223022e-01</leafValues></_>
        <_>
          <internalNodes>
            0 -1 381 -1.5396406524814665e-04</internalNodes>
          <leafValues>
            -4.7917997837066650e-01 1.1205612123012543e-01</leafValues></_>
        <_>
          <internalNodes>
            0 -1 130 1.9370527006685734e-03</internalNodes>
          <leafValues>
            1.4199167490005493e-01 -3.1588661670684814e-01</leafValues></_>
        <_>
          <internalNodes>
            0 -1 167 -4.3618199415504932e-03</internalNodes>
          <leafValues>
            1.6703216731548309e-01 -2.4670387804508209e-01</leafValues></_>
        <_>
          <internalNodes>
            0 -1 65 7.4436590075492859e-02</internalNodes>
          <leafValues>
            -9.5696523785591125e-02 4.4923600554466248e-01</leafValues></_>
        <_>
          <internalNodes>
            0 -1 68 3.6249414086341858e-02</internalNodes>
          <leafValues>
            -1.9144052267074585e-01 2.4605825543403625e-01</leafValues></_>
        <_>
          <internalNodes>
            0 -1 194 4.4290520600043237e-04</internalNodes>
          <leafValues>
            -1.1581000685691833e-01 3.0954653024673462e-01</leafValues></_>
        <_>
          <internalNodes>
            0 -1 479 3.0951902735978365e-03</internalNodes>
          <leafValues>
            4.2436391115188599e-02 -5.9932482242584229e-01</leafValues></_>
        <_>
          <internalNodes>
            0 -1 469 -7.8480131924152374e-03</internalNodes>
          <leafValues>
            2.0662428438663483e-01 -1.9189742207527161e-01</leafValues></_>
        <_>
          <internalNodes>
            0 -1 296 1.2164043728262186e-03</internalNodes>
          <leafValues>
            -1.8209931254386902e-01 2.4512092769145966e-01</leafValues></_>
        <_>
          <internalNodes>
            0 -1 400 -1.6865915677044541e-04</internalNodes>
          <leafValues>
            -3.3919572830200195e-01 1.4235559105873108e-01</leafValues></_>
        <_>
          <internalNodes>
            0 -1 263 6.1242363881319761e-04</internalNodes>
          <leafValues>
            -1.2623648345470428e-01 3.3823135495185852e-01</leafValues></_>
        <_>
          <internalNodes>
            0 -1 135 -2.2445835638791323e-03</internalNodes>
          <leafValues>
            2.8756278753280640e-01 -1.5474084019660950e-01</leafValues></_>
        <_>
          <internalNodes>
            0 -1 199 3.0253722798079252e-04</internalNodes>
          <leafValues>
            -1.9793663918972015e-01 2.1457661688327789e-01</leafValues></_>
        <_>
          <internalNodes>
            0 -1 400 1.5467153571080416e-04</internalNodes>
          <leafValues>
            1.2689800560474396e-01 -4.3303418159484863e-01</leafValues></_>
        <_>
          <internalNodes>
            0 -1 173 1.0282180458307266e-01</internalNodes>
          <leafValues>
            3.9460808038711548e-02 -8.4591126441955566e-01</leafValues></_>
        <_>
          <internalNodes>
            0 -1 123 -5.3046550601720810e-03</internalNodes>
          <leafValues>
            3.7305039167404175e-01 -1.1887709796428680e-01</leafValues></_>
        <_>
          <internalNodes>
            0 -1 139 9.2043715994805098e-05</internalNodes>
          <leafValues>
            -1.9758738577365875e-01 1.8685550987720490e-01</leafValues></_>
        <_>
          <internalNodes>
            0 -1 418 3.6154058761894703e-03</internalNodes>
          <leafValues>
            6.2731057405471802e-02 -5.6276673078536987e-01</leafValues></_>
        <_>
          <internalNodes>
            0 -1 403 -2.3288279771804810e-03</internalNodes>
          <leafValues>
            2.0521779358386993e-01 -1.8408793210983276e-01</leafValues></_>
        <_>
          <internalNodes>
            0 -1 188 -5.4767448455095291e-03</internalNodes>
          <leafValues>
            3.1115695834159851e-01 -1.2603150308132172e-01</leafValues></_>
        <_>
          <internalNodes>
            0 -1 260 -5.7318323524668813e-04</internalNodes>
          <leafValues>
            2.8369653224945068e-01 -1.6709470748901367e-01</leafValues></_>
        <_>
          <internalNodes>
            0 -1 449 3.8478508591651917e-02</internalNodes>
          <leafValues>
            5.9227067977190018e-02 -8.2049876451492310e-01</leafValues></_>
        <_>
          <internalNodes>
            0 -1 115 -6.8805769085884094e-02</internalNodes>
          <leafValues>
            -5.5037868022918701e-01 6.4460739493370056e-02</leafValues></_>
        <_>
          <internalNodes>
            0 -1 310 3.0491147190332413e-03</internalNodes>
          <leafValues>
            -1.1232458055019379e-01 3.4893572330474854e-01</leafValues></_>
        <_>
          <internalNodes>
            0 -1 346 1.7872886382974684e-04</internalNodes>
          <leafValues>
            1.2147636711597443e-01 -3.5898280143737793e-01</leafValues></_>
        <_>
          <internalNodes>
            0 -1 281 -5.3509194403886795e-03</internalNodes>
          <leafValues>
            4.5033824443817139e-01 -9.3639120459556580e-02</leafValues></_>
        <_>
          <internalNodes>
            0 -1 228 -3.4295005025342107e-04</internalNodes>
          <leafValues>
            -5.6799030303955078e-01 8.5295155644416809e-02</leafValues></_>
        <_>
          <internalNodes>
            0 -1 260 4.9706496065482497e-04</internalNodes>
          <leafValues>
            -1.4838278293609619e-01 2.8096747398376465e-01</leafValues></_>
        <_>
          <internalNodes>
            0 -1 72 -2.4158379063010216e-02</internalNodes>
          <leafValues>
            6.3988918066024780e-01 -5.8858264237642288e-02</leafValues></_>
        <_>
          <internalNodes>
            0 -1 391 -1.8708470743149519e-03</internalNodes>
          <leafValues>
            2.3898772895336151e-01 -1.4639885723590851e-01</leafValues></_>
        <_>
          <internalNodes>
            0 -1 454 1.4077930245548487e-03</internalNodes>
          <leafValues>
            1.3009943068027496e-01 -2.8880381584167480e-01</leafValues></_>
        <_>
          <internalNodes>
            0 -1 118 6.5949089825153351e-02</internalNodes>
          <leafValues>
            5.5402949452400208e-02 -6.3718271255493164e-01</leafValues></_>
        <_>
          <internalNodes>
            0 -1 120 8.8712188880890608e-04</internalNodes>
          <leafValues>
            -1.9284276664257050e-01 2.0244050025939941e-01</leafValues></_>
        <_>
          <internalNodes>
            0 -1 227 2.0327577658463269e-04</internalNodes>
          <leafValues>
            1.1619598418474197e-01 -3.3758011460304260e-01</leafValues></_>
        <_>
          <internalNodes>
            0 -1 411 -2.3435037292074412e-04</internalNodes>
          <leafValues>
            2.0107580721378326e-01 -1.8362486362457275e-01</leafValues></_>
        <_>
          <internalNodes>
            0 -1 142 2.5862798793241382e-04</internalNodes>
          <leafValues>
            -1.7897652089595795e-01 2.1170221269130707e-01</leafValues></_>
        <_>
          <internalNodes>
            0 -1 211 -1.5926973428577185e-03</internalNodes>
          <leafValues>
            -4.1935929656028748e-01 1.0101691633462906e-01</leafValues></_>
        <_>
          <internalNodes>
            0 -1 420 -1.6451140982098877e-04</internalNodes>
          <leafValues>
            -3.4449422359466553e-01 1.0885957628488541e-01</leafValues></_>
        <_>
          <internalNodes>
            0 -1 437 3.7887057987973094e-04</internalNodes>
          <leafValues>
            -1.8015718460083008e-01 2.0469245314598083e-01</leafValues></_>
        <_>
          <internalNodes>
            0 -1 67 8.8381119072437286e-02</internalNodes>
          <leafValues>
            4.7036975622177124e-02 -8.5408300161361694e-01</leafValues></_>
        <_>
          <internalNodes>
            0 -1 315 1.1377993971109390e-02</internalNodes>
          <leafValues>
            -1.6535517573356628e-01 2.6623481512069702e-01</leafValues></_>
        <_>
          <internalNodes>
            0 -1 262 -3.8168926257640123e-03</internalNodes>
          <leafValues>
            3.5634329915046692e-01 -1.2823824584484100e-01</leafValues></_>
        <_>
          <internalNodes>
            0 -1 483 3.6288935225456953e-03</internalNodes>
          <leafValues>
            6.4687311649322510e-02 -6.7966300249099731e-01</leafValues></_></weakClassifiers></_>
    <!-- stage 17 -->
    <_>
      <maxWeakCount>40</maxWeakCount>
      <stageThreshold>-7.2417235374450684e-01</stageThreshold>
      <weakClassifiers>
        <_>
          <internalNodes>
            0 -1 44 -1.0663832724094391e-01</internalNodes>
          <leafValues>
            6.4880955219268799e-01 1.4539006352424622e-01</leafValues></_>
        <_>
          <internalNodes>
            0 -1 42 7.6558515429496765e-03</internalNodes>
          <leafValues>
            -8.8870115578174591e-02 4.5643901824951172e-01</leafValues></_>
        <_>
          <internalNodes>
            0 -1 210 1.6091188881546259e-03</internalNodes>
          <leafValues>
            1.0474693775177002e-01 -4.9624952673912048e-01</leafValues></_>
        <_>
          <internalNodes>
            0 -1 39 -5.7020044187083840e-04</internalNodes>
          <leafValues>
            2.8364220261573792e-01 -1.9793312251567841e-01</leafValues></_>
        <_>
          <internalNodes>
            0 -1 427 1.1781660839915276e-02</internalNodes>
          <leafValues>
            -2.1698854863643646e-02 6.1674851179122925e-01</leafValues></_>
        <_>
          <internalNodes>
            0 -1 93 1.7309258691966534e-04</internalNodes>
          <leafValues>
            1.2449188530445099e-01 -3.1399762630462646e-01</leafValues></_>
        <_>
          <internalNodes>
            0 -1 89 4.4007850810885429e-03</internalNodes>
          <leafValues>
            -1.8950700759887695e-01 2.0172269642353058e-01</leafValues></_>
        <_>
          <internalNodes>
            0 -1 176 4.1617159731686115e-03</internalNodes>
          <leafValues>
            -1.1558803170919418e-01 3.9401027560234070e-01</leafValues></_>
        <_>
          <internalNodes>
            0 -1 242 -1.4890221878886223e-02</internalNodes>
          <leafValues>
            -9.9106073379516602e-01 4.3069999665021896e-02</leafValues></_>
        <_>
          <internalNodes>
            0 -1 231 -1.6394158825278282e-02</internalNodes>
          <leafValues>
            4.8535132408142090e-01 -8.1614792346954346e-02</leafValues></_>
        <_>
          <internalNodes>
            0 -1 183 -3.3255317248404026e-04</internalNodes>
          <leafValues>
            -4.1068765521049500e-01 1.0519921779632568e-01</leafValues></_>
        <_>
          <internalNodes>
            0 -1 446 -3.0642650090157986e-03</internalNodes>
          <leafValues>
            3.0004930496215820e-01 -1.2674567103385925e-01</leafValues></_>
        <_>
          <internalNodes>
            0 -1 335 4.9940217286348343e-04</internalNodes>
          <leafValues>
            -1.6623948514461517e-01 2.2578479349613190e-01</leafValues></_>
        <_>
          <internalNodes>
            0 -1 149 2.2875159047544003e-03</internalNodes>
          <leafValues>
            9.3178741633892059e-02 -3.9168143272399902e-01</leafValues></_>
        <_>
          <internalNodes>
            0 -1 47 2.7259081602096558e-02</internalNodes>
          <leafValues>
            -8.2052260637283325e-02 5.2760535478591919e-01</leafValues></_>
        <_>
          <internalNodes>
            0 -1 386 -8.0596917541697621e-04</internalNodes>
          <leafValues>
            2.5666710734367371e-01 -1.4161235094070435e-01</leafValues></_>
        <_>
          <internalNodes>
            0 -1 423 4.2664661305025220e-04</internalNodes>
          <leafValues>
            -2.1660035848617554e-01 2.7302834391593933e-01</leafValues></_>
        <_>
          <internalNodes>
            0 -1 409 2.7872418286278844e-04</internalNodes>
          <leafValues>
            -2.1681253612041473e-01 1.7884826660156250e-01</leafValues></_>
        <_>
          <internalNodes>
            0 -1 45 5.3645461797714233e-02</internalNodes>
          <leafValues>
            -1.0481222718954086e-01 3.6162710189819336e-01</leafValues></_>
        <_>
          <internalNodes>
            0 -1 433 1.3371076434850693e-02</internalNodes>
          <leafValues>
            -1.0875722765922546e-01 3.2251366972923279e-01</leafValues></_>
        <_>
          <internalNodes>
            0 -1 191 6.0846097767353058e-04</internalNodes>
          <leafValues>
            -2.4829222261905670e-01 1.8264162540435791e-01</leafValues></_>
        <_>
          <internalNodes>
            0 -1 226 3.3053595572710037e-02</internalNodes>
          <leafValues>
            6.9754168391227722e-02 -5.7274252176284790e-01</leafValues></_>
        <_>
          <internalNodes>
            0 -1 335 -7.3885812889784575e-04</internalNodes>
          <leafValues>
            2.9949852824211121e-01 -1.5737299621105194e-01</leafValues></_>
        <_>
          <internalNodes>
            0 -1 33 8.0628935247659683e-03</internalNodes>
          <leafValues>
            -2.0179390907287598e-01 1.9388043880462646e-01</leafValues></_>
        <_>
          <internalNodes>
            0 -1 16 -8.0791190266609192e-02</internalNodes>
          <leafValues>
            5.5890291929244995e-01 -7.2718672454357147e-02</leafValues></_>
        <_>
          <internalNodes>
            0 -1 212 -1.6844741185195744e-04</internalNodes>
          <leafValues>
            -3.7521496415138245e-01 1.1208045482635498e-01</leafValues></_>
        <_>
          <internalNodes>
            0 -1 151 1.2173576978966594e-03</internalNodes>
          <leafValues>
            -1.3813972473144531e-01 2.6198855042457581e-01</leafValues></_>
        <_>
          <internalNodes>
            0 -1 179 5.7157841511070728e-03</internalNodes>
          <leafValues>
            -2.0031546056270599e-01 1.8274585902690887e-01</leafValues></_>
        <_>
          <internalNodes>
            0 -1 301 1.4602525625377893e-03</internalNodes>
          <leafValues>
            -2.2388260066509247e-01 1.8136267364025116e-01</leafValues></_>
        <_>
          <internalNodes>
            0 -1 45 -5.3051210939884186e-02</internalNodes>
          <leafValues>
            4.7789916396141052e-01 -8.1987120211124420e-02</leafValues></_>
        <_>
          <internalNodes>
            0 -1 240 -3.5232196096330881e-03</internalNodes>
          <leafValues>
            -3.2294040918350220e-01 1.2686584889888763e-01</leafValues></_>
        <_>
          <internalNodes>
            0 -1 460 -4.2200367897748947e-04</internalNodes>
          <leafValues>
            1.5965576469898224e-01 -2.5047814846038818e-01</leafValues></_>
        <_>
          <internalNodes>
            0 -1 239 -8.8811591267585754e-03</internalNodes>
          <leafValues>
            -7.4129956960678101e-01 4.6279758214950562e-02</leafValues></_>
        <_>
          <internalNodes>
            0 -1 352 1.7312744166702032e-03</internalNodes>
          <leafValues>
            -1.0874444991350174e-01 3.6153423786163330e-01</leafValues></_>
        <_>
          <internalNodes>
            0 -1 381 -1.1743890354409814e-04</internalNodes>
          <leafValues>
            -3.6292260885238647e-01 1.1294608563184738e-01</leafValues></_>
        <_>
          <internalNodes>
            0 -1 327 -5.0732145609799773e-05</internalNodes>
          <leafValues>
            -2.7488431334495544e-01 1.5439645946025848e-01</leafValues></_>
        <_>
          <internalNodes>
            0 -1 190 2.5011823163367808e-04</internalNodes>
          <leafValues>
            -1.8243022263050079e-01 2.2110569477081299e-01</leafValues></_>
        <_>
          <internalNodes>
            0 -1 78 5.4215457290410995e-02</internalNodes>
          <leafValues>
            9.3153044581413269e-02 -4.1264551877975464e-01</leafValues></_>
        <_>
          <internalNodes>
            0 -1 0 3.4395776689052582e-02</internalNodes>
          <leafValues>
            -1.3626243174076080e-01 2.9668518900871277e-01</leafValues></_>
        <_>
          <internalNodes>
            0 -1 405 -6.6499435342848301e-04</internalNodes>
          <leafValues>
            2.7883374691009521e-01 -1.2194972485303879e-01</leafValues></_></weakClassifiers></_>
    <!-- stage 18 -->
    <_>
      <maxWeakCount>41</maxWeakCount>
      <stageThreshold>-7.8972816467285156e-01</stageThreshold>
      <weakClassifiers>
        <_>
          <internalNodes>
            0 -1 273 -5.3389009553939104e-04</internalNodes>
          <leafValues>
            4.7803071141242981e-01 -3.6991368979215622e-03</leafValues></_>
        <_>
          <internalNodes>
            0 -1 291 -2.5448418455198407e-04</internalNodes>
          <leafValues>
            -5.8731573820114136e-01 1.0709537565708160e-01</leafValues></_>
        <_>
          <internalNodes>
            0 -1 134 3.9206915535032749e-03</internalNodes>
          <leafValues>
            -8.1693679094314575e-02 5.4935681819915771e-01</leafValues></_>
        <_>
          <internalNodes>
            0 -1 100 6.6045532003045082e-03</internalNodes>
          <leafValues>
            -2.1225270628929138e-01 2.4697016179561615e-01</leafValues></_>
        <_>
          <internalNodes>
            0 -1 43 6.0440793633460999e-02</internalNodes>
          <leafValues>
            -7.5367175042629242e-02 3.6008578538894653e-01</leafValues></_>
        <_>
          <internalNodes>
            0 -1 164 4.7900140634737909e-04</internalNodes>
          <leafValues>
